<P> 0.152088763244 0.0631424103121 -0.0876127521405 0.165819092503 0.0657878162579 0.0341739651809 -0.15654855709 -0.0786417722768 -0.0885549158436 0.189631393767 0.19773535551 -0.173208310435 0.0845637017963 -0.0883399366533 0.191282367893 -0.163088157073 -0.0733880712093 -0.172386416011 0.199365993335 0.0761274305395 -0.09947777036 -0.208373226103 0.107772019715 0.0612803510637 -0.131433132149 -0.126248651524 0.0208546897851 -0.15704971764 -0.0594997025423 -0.0314545379765 -0.158186346389 0.138122056809 -0.0310461123457 -0.153123032365 0.179154080074 0.0489895037858 -0.0616241562921 0.0675583954821 0.131869078389 -0.18243679999 0.112040134909 0.154166058238 -0.109419394137 0.182421384607 -0.211667079438 -0.0245004724779 -0.191445496437 0.0516904038467 0.174378050741 -0.103396901273 0.109997013326 -0.063052755899 0.0860638682839 -0.0255496804405 0.0977899542201 0.159162198492 0.0214232974284 0.190595867889 -0.151030937458 0.0510851414965 0.0504738512915 -0.200520706782 0.143517447238 0.18980262661
<UNK> -0.192639929066 -0.0338463619861 0.14791410881 0.137969959873 -0.203933919107 -0.0615180662566 -0.0336310116079 0.0146204208617 0.016300142044 -0.159643061729 -0.212214078823 -0.142275507091 -0.0455298665711 0.199629089627 -0.14958223727 -0.161267016679 -0.00841445290488 -0.174548765383 0.207935930457 -0.0263768717716 0.193858706804 -0.00261855484746 -0.122285890542 0.0948313820789 -0.0340324900431 -0.0395855125706 -0.100135096176 -0.154667698253 -0.0713439930359 -0.13902424068 0.210080557674 -0.185990948419 -0.0413107455878 0.133967844912 0.203173413304 0.184810917024 -0.214662752246 -0.0879044430068 0.181868735473 -0.0842271071265 0.154150486683 0.0876333180609 -0.0586844522008 0.21174619717 -0.00542549124608 0.114573839367 0.0514220233721 -0.134007530108 0.21008216414 -0.0857882731152 -0.128878188575 0.188113649259 -0.0308708391432 -0.12127672488 -0.0816855591506 0.0946848937945 -0.122856967076 0.156608807362 0.0606833434333 0.160727635097 -0.0716401803251 0.0871151580783 -0.0307648023825 -0.00341651106219
<NUM> 0.171708 -0.056303 -0.059614 0.123934 -0.115438 -0.525595 0.270495 -0.033161 0.288022 -0.495058 1.04472 0.554554 0.121653 0.084438 0.341463 0.077415 0.084917 -0.348008 -0.168937 -0.611904 -0.45071 0.60255 -0.312853 -0.06395 0.28929 -0.447549 0.078283 0.536443 0.086885 0.356084 -0.565236 -0.121134 -0.222582 0.137609 0.901504 -0.462122 -1.47293 0.193445 -0.296278 -0.155849 1.03686 -1.11964 0.01015 -0.073136 0.818465 0.173133 -0.915583 0.320953 0.510404 0.218541 0.300202 0.741923 0.672597 0.242325 -0.101635 0.323245 0.492458 -0.352719 -0.595294 -0.046967 -0.033205 -0.36557 0.292486 -0.167481
<FW> 0.0960640283678 -0.150338530996 -0.135594739011 -0.184039457673 -0.175028547181 -0.0234922879046 -0.0238965785563 -0.16348859579 0.216037195057 0.0472650140877 -0.0320644952952 0.17920596247 0.131662916225 -0.156362553787 -0.0466266792567 -0.188911531435 0.17211670844 -0.141292163115 0.0324156738968 0.0562196919457 -0.082155930413 -0.0788376085842 -0.158044774906 -0.188993216198 0.17084033118 -0.187529812712 -0.1155764244 0.0821047320795 -0.178304178343 -0.0279550508979 -0.0687715228375 0.033498139344 0.206981502361 0.0988345005257 0.00586674878727 0.0414157001726 -0.206850021894 -0.116143713371 0.172923352374 0.190447211339 0.174682229558 0.15883497571 -0.0894491894637 0.191019322449 -0.0993232291135 -0.100917272827 0.129219802609 0.000575982353608 -0.0342476107659 -0.212101184561 0.0745624391676 -0.173568576023 -0.0589171745221 -0.160559588095 -0.0618984431918 -0.040857518187 -0.0277887393476 -0.179069528269 0.10085909961 0.211386127562 0.152385042952 0.0286567332021 -0.0992330608643 0.149643982368
怀 0.323936 -0.133964 -0.018248 0.116122 -0.231047 -0.057769 -0.000518 -0.044072 0.378843 0.273266 0.245473 0.171248 -0.73249 0.390624 -0.406417 -0.371375 -0.282431 -0.202331 0.628057 -0.292569 0.093708 0.157133 0.170949 0.419873 0.090857 -0.389262 -0.649964 -0.350159 -0.018436 0.216585 0.627369 0.311779 0.182005 -0.197533 -0.035374 -0.052981 -0.125392 0.145645 0.204573 -0.25303 -0.230656 0.150765 -0.193653 -0.399542 0.010847 -0.065382 0.186979 -0.281794 -0.449734 0.347971 -0.576112 0.60919 0.06331 0.109517 -0.224396 -0.050939 0.047998 0.910683 0.142009 -0.68126 0.17035 -0.412421 -0.282496 -0.005191
茂 0.519056 0.030496 0.207906 -1.04139 0.021716 -0.37852 -0.366979 0.526991 -0.353491 -0.001554 0.299866 -0.038314 0.026424 0.23516 -0.043355 -0.18007 -0.347869 0.050746 0.208285 -0.24491 0.189388 -0.0635 0.430354 0.018106 -0.228211 -0.047492 -0.094397 -0.030304 -0.276322 0.078878 -0.190653 -0.255937 0.336017 -0.049882 -0.421459 -0.099435 -0.304872 -0.186616 0.675744 0.236412 -0.114656 0.261319 -0.510826 -0.153074 -0.251132 0.133378 0.318749 0.210486 -0.352417 0.616221 -0.085793 0.685751 -0.096885 0.318186 -0.349027 -0.462665 -0.454464 0.121279 0.245962 0.211133 -0.082883 -0.30777 -0.25504 0.3276
耀 0.657909 0.74022 0.651068 -0.189125 0.087258 0.458493 -0.052743 0.371843 -0.11383 0.169547 0.426793 -0.418918 0.289352 0.561456 0.191605 -0.50499 0.12322 -0.64386 0.338687 0.190501 -0.202962 0.054439 -0.027329 0.335904 -0.416836 -0.58332 -0.656622 -0.222166 -0.454455 0.021385 -0.325237 0.535695 0.143554 0.551747 -0.19209 -0.595612 0.174953 -0.024543 0.615333 0.065899 0.035353 0.599886 -0.472847 0.037523 -0.780434 -0.059266 -1.01923 0.013668 -0.035334 0.46907 -0.252911 -0.258168 -0.056901 -0.439994 0.336981 -0.20027 0.076082 0.483551 0.014011 -0.104905 0.026128 -0.064305 -0.194233 0.623235
涉 -0.535351 0.293666 -0.326199 -0.193158 0.416416 -0.30785 0.023433 -0.03855 0.716438 -0.087681 -0.196128 -0.038294 0.19348 -0.160774 -0.130785 -0.507391 -0.120637 -0.002443 0.200579 -0.474441 0.687803 -0.432877 0.168549 -0.516299 -0.022551 -0.198304 0.445692 0.021028 -0.172332 -0.020028 -0.058631 0.228579 0.044646 -0.143089 0.934663 0.297995 0.030766 -0.101211 0.528906 -0.187153 -0.081199 -0.106973 0.248715 -0.295781 -0.266554 0.450441 0.453524 -0.286465 0.125074 0.321861 -0.389596 0.353153 -0.275594 -0.280188 0.026537 -0.130614 0.017482 0.336368 -0.24782 -0.104297 -0.231221 -0.022332 -0.240512 -0.588614
谈 -0.185293 0.276596 0.265051 -0.199124 0.144678 0.186147 0.26941 -0.018049 0.072352 0.391721 -0.591072 0.56297 0.272605 0.16017 -0.204338 0.32607 -0.371311 0.713924 0.081264 -0.194717 0.372907 0.043239 0.009138 0.467002 0.243317 -0.263952 0.58814 -0.263777 0.107307 -0.061589 0.504592 -0.431226 0.146823 0.061543 0.574287 0.083651 0.204078 0.306733 -0.357875 -0.328415 -0.098804 0.052801 -0.394059 -0.610792 -0.073068 0.019857 -0.383005 -0.230625 -0.368249 -0.118299 -0.238852 -0.119126 0.602666 0.309769 -0.24535 -0.336797 -0.063481 0.163808 -0.445428 -0.154214 -0.125004 -0.090764 0.259046 0.151687
伊 -0.364829 0.147071 -0.201205 -0.00568 -0.448284 -0.185119 -0.240706 0.092233 -0.05413 -0.191811 0.653854 -0.18099 -0.271582 0.08669 -0.086819 0.280297 -0.065135 -0.070904 0.150856 -0.640819 -0.237637 0.062954 -0.13244 0.508728 0.174249 0.090682 0.592998 0.127657 0.524285 -0.084168 0.413616 0.213899 0.227537 -0.004896 -0.192775 0.057657 -0.131379 0.260663 -0.4395 -0.087078 -0.21328 -0.471044 0.274838 0.033694 -0.212054 -0.77922 0.121394 0.289912 -0.431739 0.611416 -0.072045 0.286813 -0.472429 -0.316691 -0.732993 -0.088714 0.07077 0.398171 0.208513 0.250378 -0.621431 -0.10701 -0.502995 -0.601222
随 0.179337 0.298766 0.232971 0.290785 0.379236 -0.017794 0.150542 0.150644 -0.002775 0.12794 0.36473 0.067688 -0.259522 0.024619 -0.043853 -0.163452 0.046812 0.064814 0.222324 -0.175917 0.062195 0.35074 0.147238 0.093168 0.049414 -0.037534 -0.07525 -0.198498 0.51306 -0.253936 -0.078492 0.001421 -0.012276 -0.130064 0.574301 -0.436608 0.096708 0.361053 0.037301 -0.006606 0.064249 0.202777 0.22867 0.17134 -0.110194 0.142824 0.251542 -0.107765 -0.286666 -0.080413 -0.182888 0.496113 -0.080719 0.375897 -0.144362 0.076896 0.121206 0.009791 0.440504 -0.063633 -0.125325 0.132547 0.576827 -0.351711
挂 0.41236 -0.064912 0.290946 0.205045 -0.373251 0.054269 -0.294515 -0.367144 0.414432 0.14739 0.306548 0.885915 -0.075955 0.351685 0.072593 -0.225472 -0.127478 -0.379206 -0.292953 0.260767 0.36662 -0.247415 -0.03905 -0.071717 0.436017 0.339665 -0.234006 0.16919 -0.094047 -0.160507 -0.169162 -0.54655 0.434076 0.131359 0.539597 3e-06 0.045961 -0.196587 0.101885 0.173092 -0.009998 -0.090298 -0.105415 0.02869 -0.006957 0.633829 0.370385 0.115055 -0.218448 -0.157379 -0.721868 0.151216 -0.346467 -0.816113 0.403793 0.106926 -0.436932 -0.301427 -0.129472 0.112687 -0.133023 0.218446 -0.093359 0.157515
抗 -0.323877 -0.482824 0.19511 0.047753 -0.385917 1.028 -0.28811 0.112686 0.120395 -0.512745 -0.139215 -0.256126 -0.141737 0.032752 -0.062979 0.383072 0.029824 -0.516907 0.313046 0.154843 -0.062441 0.102755 0.002818 0.072547 0.038842 -0.648011 0.342072 -0.089963 0.001269 0.265256 0.422617 0.60331 -0.148955 -0.160883 0.593087 -0.251882 -0.450077 0.005818 0.098365 -0.298846 -0.048742 -0.098541 0.326117 0.070225 0.177792 -0.171182 0.251569 -0.127538 0.656564 -0.098562 -0.2642 0.011155 0.051465 -0.178071 0.386755 -0.12294 -0.034424 0.060219 0.428747 -0.109502 -0.193605 0.315895 -0.089456 -0.279878
料 -0.424736 -0.514482 -0.34832 -0.142366 -0.088147 -0.219154 -0.18792 -0.145406 -0.515211 -0.203542 -0.391788 0.124041 -0.592555 0.322164 0.015591 -0.500495 0.358268 0.076455 -0.42932 -0.422964 -0.290383 0.019735 -0.80511 -0.904349 -0.099305 0.219407 0.368193 -0.278655 -0.134055 -0.417133 0.004317 -0.465266 0.507099 0.324167 -0.139889 -0.003827 0.439615 -0.082881 0.143406 -0.477998 -0.31561 -0.01173 0.309841 0.174246 0.29708 0.772233 0.283889 -0.408857 -0.321585 0.228394 0.128457 -0.008339 0.174903 0.025529 -0.01855 0.14254 0.026083 -0.221774 -0.076012 0.529245 -0.074564 0.220126 0.115581 0.451069
兆 0.175448 0.617991 0.614741 -1.29469 -0.163278 -0.197729 -0.418397 0.336239 -0.681937 0.068087 0.909394 0.327663 0.509699 -0.083364 -0.005952 -0.362924 -0.18953 -0.067875 0.001997 0.259051 0.155117 0.000498 -0.09666 0.208384 -0.032881 0.138805 0.064611 0.016312 -0.317733 0.052436 -0.143038 0.404555 -0.519578 -0.22588 -0.362478 -0.843738 0.512362 -0.086838 -0.340243 0.399995 0.094862 -0.022062 0.386593 0.771212 0.087151 -0.2627 -0.021392 0.855996 0.13474 -0.026775 0.245142 0.042955 -0.441792 0.152525 0.517036 -0.408899 -0.629047 -0.20784 0.94773 -0.288127 0.535947 0.321939 -0.505915 0.400995
蜚 0.515723 0.089363 0.407182 0.370657 -0.107249 0.290309 -0.515359 0.31162 0.35391 -0.364728 0.346715 -0.225722 -0.209524 -0.097257 0.749482 -0.411545 -0.236419 0.273136 -0.098935 -0.2021 0.669619 1.08512 0.812643 -0.887482 0.358343 -1.0676 1.05138 0.051985 0.253292 0.364508 0.862532 0.624652 -0.039223 0.130344 -0.278941 0.087008 -0.759467 0.501896 0.333663 -0.389167 0.623109 0.192739 0.463629 -0.073648 -0.51252 1.02098 0.48708 0.20098 -0.48682 -0.426492 0.239505 -0.308656 0.54651 0.575765 0.157057 -0.222554 -1.16733 -0.291449 -0.04164 0.266901 0.605214 -0.362326 -1.01429 -0.02991
洞 -0.258049 0.134059 0.338745 0.018228 0.05924 -0.343554 0.158794 -0.385914 0.329475 -0.040553 0.023153 -0.711171 0.072465 0.111312 0.192686 -0.07299 0.029743 0.628007 0.284692 -0.665471 0.504925 -0.237899 0.001841 -0.62836 0.653666 -0.286963 -0.387263 0.098167 0.063712 0.421836 -0.314832 0.374308 -0.036201 -0.488299 0.036071 0.554612 0.154184 0.103328 0.220721 -0.022588 -0.086877 -0.296398 -0.43986 0.192047 -0.121062 -0.000338 -0.11926 0.752351 0.201659 0.064658 -0.020024 -0.474173 0.236058 0.019265 0.290479 -0.104549 0.032498 -0.055544 -0.126315 -0.66234 0.150792 0.070041 -0.230727 0.271032
造 -0.165214 -0.435326 0.391887 0.064422 0.349666 -0.306932 -0.032517 0.177788 0.156331 -0.060714 -0.129172 -0.121204 -0.157416 0.199765 -0.036797 0.17332 0.452296 -0.165474 -0.007707 -0.172406 0.058459 0.134938 0.279803 -0.182192 -0.414073 -0.315135 -0.180575 -0.163296 -0.317291 0.187798 0.047223 -0.542866 0.331387 -0.151069 0.416541 0.019963 0.1443 -0.395319 0.3496 0.302051 -0.188478 -0.109133 0.544518 -0.335663 0.353761 0.213211 0.37234 -0.1856 0.305409 -0.068335 0.198278 -0.153231 0.202502 0.009654 0.228155 0.041888 -0.066249 -0.104876 0.105611 -0.105581 0.445759 0.123579 0.095821 -0.075311
瘤 0.760782 -0.973199 -0.190861 0.369066 -0.474304 0.437515 0.376303 -0.255937 0.230206 0.757984 0.333698 0.5643 0.425654 0.035003 0.402035 0.483678 0.643481 -0.053401 -0.061462 0.556534 1.18792 -0.033849 -0.127358 -0.653674 -0.330958 0.563836 -0.107024 0.151108 0.284772 0.125407 0.9778 0.774054 -0.57118 0.360121 -0.471489 -0.093725 -0.027094 -0.020153 -0.328425 -0.926537 0.029079 0.050919 0.746861 0.440461 0.295348 0.393637 -0.026238 -1.03428 -0.09776 0.118034 -0.990455 -0.652906 -0.020321 -0.945479 -0.560132 0.364609 -0.446767 0.378482 -0.209081 -0.243848 0.16475 0.230897 -0.144256 -0.436599
骧 -0.278377 1.03421 -0.358817 0.133814 -0.673362 0.249084 0.23774 0.738086 1.25444 0.030476 0.263601 -1.13108 0.617758 -0.51876 -0.1663 -0.838871 -0.5747 -0.744617 0.138453 0.891187 0.339992 -0.411585 0.074544 -0.955424 -1.19348 0.993581 -0.229175 -0.43351 0.573633 0.994654 -0.099886 -0.396694 -0.725396 0.487073 0.320026 -0.144504 -0.342653 -0.219226 0.206755 0.236822 -0.839282 -0.454539 -0.404122 -0.115229 -0.042778 0.494106 0.255036 0.327677 -0.367112 0.248479 -0.490881 0.743298 0.390931 -0.09501 -0.242251 -0.348937 -0.684054 -0.295353 0.725363 0.251668 0.588956 -0.61734 0.100269 -0.522746
悫 -0.311776 0.189261 0.965287 -0.918775 -0.066197 1.05501 1.05518 0.519036 -0.191354 -0.838713 -0.018849 -0.098263 0.001298 -0.355233 0.739736 -0.123625 -0.048768 0.523993 -0.352752 0.129252 0.405929 -0.212298 0.244861 -0.022679 0.064273 0.406565 1.50758 0.750837 -0.628494 -0.614127 0.287288 0.458708 -0.17947 -0.341905 -1.10075 -0.763951 0.018099 0.124481 -0.26779 -0.30386 -0.003532 0.177223 -1.18996 -0.813608 -0.166832 0.64085 0.088496 0.352058 -0.256908 0.594704 -0.599914 -0.678247 0.339569 -0.076977 1.11829 0.41945 -0.556543 0.554271 0.722905 1.14914 -0.269812 -0.003373 -1.00648 0.136383
缪 -0.782167 -0.09848 0.225844 -0.51006 -0.62045 0.397907 0.336063 -0.26794 -0.609735 0.543157 -0.109637 -0.839636 0.030985 -0.148655 -0.015021 0.042659 -0.482912 -0.872347 -0.126437 0.617842 0.69328 -0.478484 -0.47162 0.755638 -0.100045 0.269427 0.0573 -0.328297 0.328258 0.079832 0.004373 -0.264782 0.259165 -0.213517 -0.426731 -0.034993 -0.378525 0.815014 -0.473315 -0.076551 0.001216 0.434915 0.294736 0.034994 -0.098889 0.40136 0.336706 0.89099 -0.670271 0.473888 -0.022555 -0.035544 -0.301705 -0.116869 -0.657513 -0.159308 -1.05421 -0.15944 -0.022958 0.073411 -0.748237 0.287006 -0.097453 0.037387
般 0.16006 -0.296628 0.173469 0.270474 0.176792 -0.237747 -0.316243 -0.050132 -0.35678 0.393804 -0.041963 -0.487438 0.189372 0.09514 -0.333159 -0.157414 0.234972 0.300434 -0.279895 0.24616 -0.172753 -0.155825 -0.187435 -0.088276 -0.122336 -0.226837 0.007054 0.249055 0.481659 -0.307739 -0.224667 -0.183981 0.127756 -0.172114 -0.066119 0.199358 -0.330622 -0.173976 -0.009023 0.036721 -0.082203 0.106584 0.109267 -0.195624 -0.144946 0.233328 0.446735 -0.148004 -0.154563 -0.117056 0.107004 0.061697 0.072111 0.141176 0.403172 -0.115679 -0.087707 -0.108587 -0.199432 -0.242477 0.252236 -0.027415 -0.005232 0.111811
作 -0.068253 -0.300122 0.068009 0.036931 0.350917 -0.086488 0.10285 -0.132227 -0.20149 0.094285 -0.291702 0.193502 -0.026623 0.364676 -0.118305 0.140753 0.188172 0.07894 -0.326253 -0.090952 -0.253064 0.370799 -0.00881 0.019004 -0.324926 -0.164722 -0.318754 -0.176153 0.067668 -0.136412 0.250954 -0.346227 0.063742 0.119664 0.834033 -0.144 -0.186533 -0.262023 0.08678 0.051048 -0.115234 -0.061306 0.182532 0.152325 0.208509 -0.17827 0.067371 -0.397658 0.164169 0.169187 0.274232 0.011416 0.099568 0.301787 -0.198834 -0.152833 0.099829 -0.183212 -0.185016 0.013561 0.283809 0.173917 0.104574 0.120875
硷 -0.539943 0.716445 -0.110132 -0.488796 0.395753 -0.828091 0.447965 -0.07554 0.343962 -0.147464 0.657396 -0.528289 0.823166 -0.80422 -0.35356 0.004204 -0.366488 -0.492523 0.505913 -0.377057 0.884138 0.997568 -0.00078 -0.832152 -0.439167 0.132413 0.708259 -0.55674 -0.706711 0.438951 -0.534998 0.626281 0.233537 0.223404 -0.504347 -0.338964 -0.003152 -0.584618 -0.165689 0.094241 0.080619 -0.335075 0.184597 0.499633 -0.405008 -0.628914 1.30853 0.599535 0.399518 0.0592 -0.028845 -0.62259 0.053618 0.143703 0.327895 0.879412 -0.221356 0.633345 0.202192 -0.602008 0.996146 -0.785153 -0.296284 0.325533
河 -0.62449 0.139771 -0.16035 0.152094 -0.228807 -0.339826 0.340736 -0.224326 0.39307 -0.082476 0.111111 -0.229239 -0.180022 -0.05064 0.053961 0.731235 0.306932 0.195739 -0.000987 -0.160846 -0.470486 -0.259993 0.512757 -0.392254 0.151698 0.028258 0.226267 -0.078136 -0.306568 -0.125532 -0.043045 0.366598 0.532489 -0.19081 0.034357 -0.041217 -0.010101 0.082254 -0.248577 0.089338 0.129938 -0.506886 -0.108366 0.133623 -0.368618 0.073025 -0.881987 0.520627 0.27187 0.321521 -0.908838 -0.083057 -0.579798 0.059614 -0.278795 -0.369481 0.13019 -0.385527 0.113112 -0.310792 -0.447788 -0.25349 -0.180262 0.033463
欲 -0.480666 -0.45364 -0.475913 0.162741 0.079827 0.495261 -0.035847 0.137065 -0.4023 -0.103958 -0.507782 -0.531737 0.142306 0.273548 -0.397615 -0.060131 0.106638 -0.225303 -0.132571 -0.215609 0.381177 0.439858 0.408882 0.148291 -0.012274 -0.087747 0.363246 0.229467 -0.270326 0.195913 -0.069431 0.145422 -0.295239 0.126432 -0.179733 -0.228341 0.181083 -0.219268 -0.602654 0.331887 0.175399 0.328093 -0.293661 -0.486784 -0.531731 0.408762 -0.253812 -0.250819 -0.164671 -0.684308 0.284203 0.226562 -0.209588 -0.038217 0.100318 -0.540261 -0.032804 9e-06 -0.383959 -0.266331 0.537581 0.302377 -0.124257 -0.263526
侵 -0.273986 0.38581 -0.274313 0.037428 0.365499 0.107617 0.482747 -0.252196 -0.502582 -0.109501 -0.313902 -0.158965 -0.008194 -0.284827 0.213976 -0.472606 0.292098 -0.340107 0.577346 -0.050482 -0.240104 0.040662 0.294346 -0.208941 0.352031 -0.506883 1.04244 -0.119436 0.397671 0.643374 0.135366 0.386339 0.07381 -0.326459 0.667743 0.01624 0.452434 -0.099662 0.357113 -0.016406 -0.279445 -0.468917 -0.207303 0.398103 0.000596 0.076083 0.763859 0.209764 0.450904 -0.391051 -0.100488 0.274102 -0.243893 -0.609953 0.260679 0.62955 -0.214209 -0.244593 -0.176149 0.188824 0.155499 -0.136052 -0.621603 -0.606049
临 -0.144043 0.517389 0.205074 0.352182 -0.405373 0.035991 -0.009267 0.380996 0.446182 -0.280963 -0.425026 -0.016654 -0.563824 -0.4422 -0.22627 0.057995 0.227653 -0.058543 -0.265009 -0.436053 -0.274513 -0.252482 0.413991 0.23038 -0.169378 0.260073 -0.040169 0.028952 -0.168958 0.423445 -0.123082 0.375903 0.272377 -0.157978 0.380838 -0.132879 -0.051451 -0.334285 0.045538 0.18382 0.027399 0.253858 -0.170008 -0.360668 0.129882 -0.043921 -0.593496 -0.049408 0.043197 -0.464581 -0.574757 -0.017565 0.399807 -0.352571 0.350316 0.254196 0.044035 -0.042867 -0.067675 -0.014634 -0.14264 0.129392 0.18853 0.167483
然 0.004131 -0.338638 -0.520594 0.320856 -0.010784 -0.220602 -0.196598 0.180555 -0.322719 0.237177 -0.353326 -0.109242 0.222715 0.709492 0.114503 -0.66829 0.337708 -0.165553 -0.046843 0.00468 -0.627082 -0.12121 0.129345 -0.361918 0.285105 -0.043618 0.385613 0.130356 -0.044933 0.131338 -0.028329 -0.102962 -0.115804 -0.094758 -0.053706 0.227416 -0.015547 -0.013891 -0.55938 -0.115608 -0.306936 0.141596 0.673755 -0.188848 -0.428999 -0.090387 0.112168 -0.63601 -0.088218 -0.452375 -0.116757 -0.095545 0.254254 0.089896 0.498062 0.100065 0.109887 0.315822 0.420174 -0.019457 -0.29702 -0.197364 -0.065089 -0.032726
疹 1.55701 -1.07657 -0.159051 -1.29121 0.144185 -0.429164 -0.192029 0.164599 -0.314046 -0.264884 0.315752 0.427193 0.310222 0.291254 1.16294 0.091208 0.410944 0.678497 -0.080767 -0.497314 1.31616 -0.512585 0.335335 -1.24917 -0.078408 -1.59002 0.210567 0.121388 -0.102717 0.24061 0.622913 -0.722398 0.747485 0.379226 -0.38522 -0.118366 0.090254 0.391909 -0.456316 0.268675 0.622667 1.21193 0.346956 0.038951 -0.569238 0.146913 0.256778 0.808523 0.530213 -0.361926 -1.21068 -0.423765 -0.649703 -0.295525 0.39073 1.46734 0.360764 -0.44495 0.369937 1.1892 0.117761 0.543547 -0.614335 -0.131056
吸 -0.082402 -0.478442 -0.246229 0.43035 0.062505 0.209362 -0.118668 -0.334211 0.013925 -0.347673 0.07649 -0.138935 0.342103 0.202119 -0.359725 -0.090303 0.054545 0.253615 -0.036474 -0.533605 0.202563 0.11578 -0.158868 -0.163159 -0.474155 0.148553 0.334764 0.038841 0.578078 0.061385 0.313647 0.290797 -0.399422 0.137089 0.732631 0.030166 0.514561 0.105453 0.010608 0.09956 -0.014972 -0.001608 -0.063927 -0.073772 0.08217 0.45768 0.609621 0.229484 0.174248 -0.160429 -0.725523 -0.244897 -0.61297 0.157097 0.126659 -0.148659 0.138681 0.029043 -0.156812 -0.218229 -0.01316 0.051759 0.231523 -0.048523
场 -0.400969 -0.223306 -0.24297 0.222925 -0.001143 -0.012767 0.045461 0.002287 0.000618 -0.088829 -1.04952 0.528239 0.020639 0.134295 0.026231 0.276558 -0.096491 0.559408 0.031889 -0.007724 -0.48095 -0.209797 -0.857557 -0.207818 -0.182407 -0.055624 -0.021581 0.721728 -0.300104 0.080895 -0.239131 0.034755 -0.246576 -0.007657 0.090782 0.144178 -0.277609 -0.226412 -0.210598 0.29876 -0.034555 -0.289475 0.605217 0.003035 -0.345449 0.01886 -0.061098 -0.176715 0.210976 -0.071033 0.248445 -0.158852 0.081807 0.331304 0.274228 -0.162003 0.248551 0.477318 0.07805 -0.197645 -0.247831 0.064286 0.304201 -0.009167
宽 0.038395 -0.366347 0.199599 -0.056339 0.092489 -0.346888 0.624381 0.45272 -0.131063 0.01192 0.434339 0.335868 -0.110089 0.530308 -0.420985 -0.068557 0.018971 -0.362609 0.500946 -0.062446 -0.233723 -0.591217 -0.032874 0.58416 0.532805 0.100142 -0.025224 -0.169632 -0.632387 0.152342 -0.228371 0.009092 0.135077 0.397131 -0.239927 0.606741 0.138111 -0.280698 0.389516 -0.469216 0.944941 -0.150004 -1.00971 0.574104 0.03385 -0.124254 -0.289968 0.093737 -0.159098 -0.497294 0.112592 -0.351056 0.163586 0.459407 -0.023326 0.56857 0.174379 0.251226 -0.344004 0.166938 0.28736 -0.204024 0.024538 0.253582
稼 0.885263 0.263214 1.21422 -0.724352 0.342872 1.01895 -0.141001 0.495696 -0.904131 0.215712 0.209544 -0.022316 0.172806 -1.50154 0.959066 -0.947019 0.679161 0.169547 -0.072061 -0.151379 0.639165 -0.271467 0.053364 -0.16521 -0.462553 0.476139 0.948305 -0.402282 0.391487 0.569554 0.351961 0.247996 0.680151 0.010779 0.118967 0.026933 -0.084662 1.06162 0.991635 -0.306356 0.075777 1.29894 0.788252 0.373361 -1.48619 -0.999634 0.204579 0.334888 -0.169433 -0.639199 0.259131 -0.597782 0.852926 0.031889 0.294592 -0.423789 -0.667568 0.072487 0.275854 0.314153 -0.010399 0.036097 -0.214082 -0.313359
线 -0.292143 -0.191715 -0.064616 -0.060931 -0.222348 -0.408753 0.286017 0.175222 -0.260163 0.008098 -0.012507 0.110587 0.039243 0.146188 0.267273 0.594398 -0.257789 0.020337 -0.396721 0.072308 -0.465306 -0.075244 -0.22682 0.056937 0.153031 0.171176 -0.287554 0.306391 0.123164 -0.065115 -0.566401 0.046897 0.113369 0.265463 0.259121 0.448451 -0.137508 -0.483384 0.172638 0.039205 0.21684 -0.671746 0.151632 -0.019312 -0.068317 0.851436 -0.286341 0.062235 -0.030873 0.011669 -0.268827 -0.022836 0.229778 0.18245 0.234654 0.036645 -0.035379 -0.109838 0.320642 -0.039516 -0.158636 0.615882 0.219042 -0.310993
@ -0.005562 0.001985 0.299339 -0.920286 0.384897 0.018791 0.879155 -0.606308 -0.156079 -0.262865 0.57555 0.1851 -0.311333 -0.636688 -0.417158 -0.309204 0.072325 0.11105 -1.3215 -0.032671 -0.608701 -0.44107 0.341274 0.057276 -0.216574 0.290148 0.623701 0.181684 -0.182353 0.278061 0.637916 -0.876549 -0.001083 -0.654524 -0.397318 -0.275427 -0.395791 0.286422 0.125878 -0.45797 0.372296 -0.311047 -0.784312 0.003026 -0.40318 -0.096064 -0.315387 0.824243 -0.204892 0.171601 -0.55391 -0.203386 0.058216 0.232573 0.088384 0.502003 -0.398107 -0.266387 -0.243948 0.421941 -0.077405 0.506145 -0.271888 -0.107681
反 0.007273 -0.266696 0.223599 0.305801 0.255592 0.682414 0.073181 0.057777 -0.052673 -0.475074 -0.007555 0.266344 0.203128 -0.031065 -0.025206 0.101664 -0.336 -0.496724 0.64506 -0.136823 0.195423 -0.1464 -0.212894 0.124765 -0.0496 -0.54884 0.446813 0.097635 -0.17142 -0.077158 0.100587 -0.019223 0.101219 0.080427 1.03867 -0.04576 -0.371569 -0.272971 -0.388556 -0.237643 -0.148508 -0.121217 -0.091617 0.012274 -0.481659 0.061745 -0.041897 -0.313319 0.161577 -0.008013 -0.122384 -0.007853 -0.077204 0.04324 0.087526 0.286271 -0.118277 -0.069037 0.175694 -0.059437 0.149094 0.333429 0.235545 -0.215386
牌 0.172262 -0.190008 -0.125714 0.226064 0.421617 0.055604 -0.109258 0.00892 0.263362 0.235157 0.048649 0.286483 -0.091788 0.087122 0.089669 0.196888 -0.384921 -0.190698 -0.405334 0.25515 -0.160262 -0.298174 -0.332729 -0.835045 -0.182829 0.019279 -0.745818 0.032371 -0.590566 -0.214323 -0.528974 -0.270204 0.005542 0.096029 -0.110172 0.395267 0.125497 0.293221 0.343912 -0.031552 0.240782 -0.040113 0.41447 -0.130563 -0.090617 0.266658 0.374121 -0.134345 0.45117 0.141648 0.183856 -0.083081 0.206208 -0.176289 0.156808 -0.098252 -0.076629 -0.05039 -0.28019 0.465504 -0.323187 0.163876 0.100774 0.103201
舌 -0.299517 -0.198605 0.04093 0.803804 -0.904368 0.367341 -0.346618 -0.030495 0.246724 0.365608 -0.253416 -0.643698 0.954302 -0.597423 0.166659 0.937849 -0.92021 -0.25183 -0.356224 0.560761 0.641748 0.944767 -0.62753 0.271617 0.065667 -0.46555 0.164532 0.117218 0.816239 -0.282732 0.380894 -0.041395 0.259029 0.170621 -0.247273 0.032254 -0.39858 -0.137859 -0.318642 -0.368082 0.7793 -0.387284 -0.619662 -0.177675 -0.752114 0.343033 -0.102114 -0.085797 -0.220573 0.45 -0.921043 0.150352 -0.27075 0.017084 -0.655446 0.09698 -0.609645 -0.926355 0.521751 -0.688326 -0.161351 -0.107027 -0.391473 0.038468
科 0.165718 -0.248283 -0.528867 -0.263982 -0.016557 -0.482485 0.126076 -0.361344 -0.144193 0.241557 0.104657 -0.644954 0.080486 -0.728396 0.339244 0.272486 0.535743 0.281583 -0.22903 0.140603 0.17163 0.176338 0.001849 0.587192 -0.274221 0.180535 -0.018364 0.063808 0.159018 0.200985 -0.038038 -0.245261 -0.007649 0.142629 0.277963 0.097417 -0.184655 -0.387315 -0.137877 0.159967 -0.118198 -0.378242 0.184362 0.205217 0.056416 -0.3622 0.383355 -0.071271 -0.214359 0.719737 -0.224772 0.0118 0.021054 -0.189534 -0.471584 -0.175854 0.052034 0.151426 0.005099 -0.091069 -0.513556 0.388967 -0.347282 0.775533
筒 0.595015 -0.488133 0.406575 -0.476783 -0.623226 0.502778 0.436966 -0.492051 0.318917 0.210009 -0.331781 0.061524 0.945471 1.13408 -0.124695 0.349622 -0.472296 0.49106 -0.456919 -0.590776 0.902597 -0.193412 0.029418 0.048678 0.700712 0.159703 -0.285827 0.50529 0.422908 0.151682 -0.401756 -0.412556 -0.176103 -0.016823 -1.10985 0.411445 0.578494 0.453773 -0.452227 -0.704106 0.012941 -0.040518 0.23234 0.590298 0.521348 0.68278 0.567429 0.336388 0.861854 0.670778 0.212717 0.224516 0.112624 0.7389 -0.074265 0.25196 0.164648 0.025666 0.304876 -0.353576 -0.549755 0.212817 0.356918 -0.36787
嚏 0.287793 0.245518 -0.000221 0.051552 -0.686612 -0.303802 0.256894 -0.147897 0.331676 0.195133 0.233319 0.056908 0.596608 -0.101565 -0.099341 -0.377216 -0.101751 0.545985 -0.304014 0.659534 0.981862 -0.781602 -0.223873 -0.417027 0.391282 0.562407 0.445788 0.135397 0.254303 -0.158959 0.716426 -0.024351 -0.23662 0.152162 -0.947729 -0.086489 -0.535495 0.018685 0.81056 -0.29681 0.408913 0.744832 0.481317 0.117657 0.61549 0.802865 0.475774 1.00938 0.765197 -0.132713 -1.61135 0.368098 0.866333 0.021547 0.255045 -0.0897 -1.24866 -0.036425 -0.426688 0.141036 -0.075055 0.13875 -0.411657 -0.608276
苗 -0.171345 0.271591 -0.645776 -0.745989 -0.110274 0.29485 -0.510918 -0.048174 -0.690397 0.069903 -0.062502 0.073739 -0.194731 -0.110252 -0.079515 0.278313 0.079483 0.057379 -0.190077 0.118191 0.673545 -0.052124 0.460695 -0.056157 -0.091351 0.465114 0.447599 0.165537 -0.701044 0.597998 0.145301 -0.176439 -0.007709 -0.158703 -0.296401 -0.291072 -0.173686 0.636264 -0.101361 -0.414602 0.197026 0.021462 0.068624 0.632011 0.193042 0.293046 0.191877 -0.411857 0.141368 0.177174 -0.153013 -0.501537 0.130353 -0.018245 -0.2901 -0.136373 0.204064 -0.184932 0.184752 0.233715 0.287469 0.276724 0.045886 0.424245
纸 0.284453 -0.31707 0.308612 0.194557 0.217183 0.2503 -0.621164 -0.407316 -0.177346 -0.111884 0.156044 0.050338 -0.235836 -0.077708 -0.109293 -0.145048 -0.098473 0.004305 -0.204997 0.092893 0.658223 0.434098 -0.084834 -0.704392 0.34981 -0.088463 -0.358237 0.059228 0.163921 -0.137801 -0.146501 -0.769085 0.842006 0.108353 -0.592006 0.18618 0.745174 -0.007447 0.778868 -0.134136 -0.472233 -0.324627 0.034397 -0.292284 0.424926 0.33756 -0.41745 -0.386527 0.061048 0.16186 -0.08873 0.059397 0.218326 0.000781 -0.015981 -0.101943 0.075553 -0.461559 -0.304476 0.624629 -0.060606 0.480898 -0.258962 0.684163
若 -0.62681 -0.26131 0.135306 -0.153194 -0.121858 -0.576696 0.110603 -0.076705 0.089875 0.255587 0.235117 -0.544208 0.262934 0.097272 -0.043771 -0.459205 -0.187015 0.006312 -0.063159 -0.029422 0.147072 0.281014 0.200596 -0.115958 0.331684 -0.029679 0.340224 -0.141482 0.225531 -0.132069 0.006706 -0.151346 0.207781 -0.404941 -0.26864 -0.083874 -0.048687 0.090474 -0.62849 0.067119 0.140368 -0.017028 0.250003 0.036813 0.100891 -0.513463 -0.096515 -0.389074 -0.013879 -0.326874 0.002304 0.548579 -0.405312 -0.040237 0.415058 -0.09809 -0.205674 0.371083 0.135654 -0.110991 -0.04049 -0.116278 -0.186155 0.128269
话 0.142014 -0.341934 0.012691 0.168098 0.663749 0.069921 -0.262643 0.050622 -0.742124 0.247164 0.077243 0.790044 -0.02394 -0.189101 -0.41971 0.341667 -0.20328 0.741573 -0.617166 -0.123008 0.022937 0.178107 0.214212 -0.304368 0.408908 0.514961 -0.186298 -0.118614 0.189472 -0.16315 0.373849 0.27092 0.511766 -0.345525 0.166416 -0.033193 0.045904 0.341155 -0.058117 -0.201253 -0.589287 -0.206401 -0.239992 0.081516 0.186699 0.542578 -0.610126 -0.537998 -0.046001 0.314424 0.396219 -0.356935 0.218909 0.316202 0.24965 -0.313304 -0.312552 0.093106 0.036383 -0.163463 -0.285052 -0.334523 -0.151254 -0.007542
赞 0.629435 -0.022456 -0.320837 -0.28572 0.470482 0.097195 0.359386 0.151298 -0.409784 -0.29235 -0.148031 0.04069 0.38976 0.003692 -0.426624 0.035951 -0.682046 -0.065425 -0.073158 0.211601 -0.358916 0.083624 0.16176 0.243541 0.227439 -0.495336 0.288418 0.126818 -0.57913 -0.102611 0.315638 0.056468 0.330917 0.241922 0.021873 -0.330688 0.385064 0.835779 -0.032929 -0.155196 0.487661 -0.077747 -0.402966 -0.010867 0.00916 -0.314051 0.537836 -0.147473 0.257043 0.190616 0.348076 0.450069 -0.815868 0.129411 -0.31988 0.318597 -0.053021 0.4019 0.066402 0.013219 -0.098088 -0.243857 -0.282617 0.296877
凡 -0.45748 -0.31865 -0.28945 -0.640074 0.049856 -0.536045 -0.094763 0.04059 -0.084281 0.20651 0.134311 -0.512078 -0.003593 0.175481 -0.198056 -0.522475 0.052513 -0.053405 0.154326 0.107068 -0.170397 -0.359078 -0.090227 0.429771 0.063217 -0.513158 0.380919 -0.353044 0.211504 0.085949 0.320086 -0.279828 -0.041901 -0.136271 0.09523 -0.196515 0.288004 0.398331 -0.525738 0.213961 0.0118 -0.170048 -0.140446 -0.097206 -0.372704 -0.22392 -0.115006 0.164655 -0.659693 0.018511 0.518687 0.112238 0.27553 -0.290061 0.359834 -0.425682 -0.092408 0.290419 -0.29624 0.024608 -0.506093 -0.313373 -0.203356 -0.25921
瓣 -0.342573 -0.126168 -0.411853 -0.430108 -0.475526 0.3423 -0.338705 0.193251 -0.026117 0.080027 -0.324313 0.050846 0.387277 -0.816522 -0.380665 0.378107 0.388621 -0.302528 -0.874568 0.294208 0.519223 0.406606 0.015754 -0.198519 0.462138 0.832846 -0.084864 0.424795 0.431965 -0.157548 -0.052562 -0.155074 0.232758 1.14852 -0.874409 0.033 -0.387897 0.139299 -0.136753 -0.580757 -0.009541 -0.440754 -0.304037 0.372014 0.025663 -0.297538 -0.061713 0.586721 0.252816 -0.178329 -0.76296 0.076174 -0.154257 0.14132 0.30241 -0.1075 -0.589045 1.04415 0.133871 -0.479611 0.599472 0.062546 -0.164169 -0.069893
卢 0.072977 -0.159107 0.090549 -0.141761 -0.080431 -0.101839 0.097258 0.171336 -0.427127 0.245714 0.270108 -0.254109 -0.373633 0.078505 0.258316 0.405985 -0.165183 0.215528 0.238362 -0.300302 -0.093488 -0.242327 0.062315 0.638212 -0.412502 0.069723 0.695031 0.06021 -0.264893 0.224155 -0.1156 -0.140821 -0.001726 -0.024097 -0.551858 -0.053863 -0.721785 0.396774 -0.244907 0.016087 0.064687 -0.173878 0.208867 -0.187605 -0.048312 -0.649416 0.078131 0.484441 -0.070054 0.410381 -0.401185 -0.085431 -0.198495 -0.044532 -0.952334 -0.189259 -0.110279 0.023569 -0.393175 -0.065488 -0.133441 0.578488 -0.045426 -0.46626
知 0.071884 0.140163 -0.150907 -0.00284 0.126829 -0.487537 0.526969 -0.069266 0.001327 0.451932 0.085102 -0.204965 -0.065397 -0.357064 -0.168493 -0.256959 0.102348 0.160293 -0.053411 -0.023722 -0.280489 0.149931 0.300573 0.056426 0.38662 -0.060231 0.031047 -0.42991 -0.016861 -0.140381 0.151184 0.198915 0.129799 -0.400356 0.481384 -0.008685 0.342905 0.21315 -0.13453 -0.13553 -0.070406 0.068228 -0.249575 -0.404771 -0.032489 0.049676 0.1764 -0.748472 -0.149808 0.062807 0.13972 0.084613 -0.083722 0.032464 0.163834 -0.020549 0.273143 0.366828 0.48966 -0.251432 0.262607 -0.247611 -0.138311 0.547632
除 -0.501271 -0.473171 0.218511 0.191351 0.082138 0.216 0.098729 -0.195511 0.181045 -0.110136 -0.280188 0.049309 -0.453725 -0.142932 0.026273 -0.22504 0.246099 -0.025573 0.062284 -0.119566 0.014402 0.122961 -0.050883 -0.292721 0.025017 -0.40852 -0.214645 -0.044296 0.521805 -0.14029 0.099186 0.247859 -0.189562 -0.0636 0.237648 0.112015 0.064095 -0.103702 0.038911 0.005591 0.369675 -0.292511 0.34352 -0.142252 0.12806 0.049508 -0.075988 -0.185902 0.129991 -0.326523 -0.066542 0.11493 -0.235526 -0.573663 0.272422 0.277833 -0.4463 -0.199785 0.294636 0.161064 -0.253271 -0.026889 -0.041243 -0.035924
巩 -0.197169 -0.213983 0.396777 -0.302123 -0.006391 0.156975 0.156055 -0.008851 -0.421924 0.100141 0.022055 -0.01217 -1.34735 0.980023 0.503971 -0.646613 -0.451987 -0.251548 0.986798 -0.743664 0.317199 -0.134923 0.546859 -0.068043 0.665859 -0.409638 0.609123 -0.248757 -0.879555 0.498025 1.37021 0.049347 0.151181 0.25968 -0.588212 0.577315 -0.006274 -0.228634 -0.315925 -0.299754 0.693019 0.24986 -1.18041 0.4204 -0.063658 0.304962 0.061629 -0.113164 -0.513222 0.342668 -0.341095 -0.081948 0.06254 -0.231644 -0.561986 -0.869233 0.341204 -0.162489 0.059834 0.405742 0.005327 -0.038281 -0.359934 0.403943
罪 -0.003789 -0.172148 -0.165239 -0.451528 0.477706 -0.174085 0.608621 0.293926 0.38039 0.154233 -0.42682 0.196735 0.65901 -0.116313 0.189075 -0.047217 -0.18323 -0.474784 -0.113358 0.647426 0.519835 0.10964 -0.677071 -0.268239 0.003491 -0.772607 0.245882 -0.102334 -0.348794 0.444398 0.267717 0.613746 0.177631 -0.683988 0.590127 -0.117904 0.423918 -0.076015 0.039301 -0.093317 -0.18327 -0.053216 0.674984 -1.04574 -0.133726 0.833078 -0.585433 -0.145138 -0.35493 0.237958 0.76663 -0.0193 -0.446189 -1.15024 -0.34071 0.643952 0.256417 0.041029 -0.525411 -0.201085 0.462936 -0.212697 0.00733 -0.79668
揭 0.254657 -0.222773 0.467284 0.697902 -0.196865 -0.216866 -0.174365 0.409106 -0.055179 -0.525633 -0.356726 -0.008356 -0.507736 -0.202018 -0.203571 -0.093267 -0.808897 -0.663782 -0.475923 0.078872 0.755581 -0.207795 0.074218 0.300088 0.403377 0.550021 -1.1535 -0.433907 -0.040042 -0.308298 0.690508 -0.386071 -0.862789 0.378606 -0.147038 0.629703 0.072124 0.144683 -0.29758 -0.144355 0.161971 -0.116852 -0.357194 -0.516655 -0.180228 -0.434035 0.130816 0.166299 0.582358 -0.47742 -0.153513 0.167777 0.255475 -0.17867 0.490712 -0.159874 0.311374 0.707784 -0.223904 0.663852 -0.568339 0.318866 -0.616253 0.251867
扬 0.497058 -0.096716 -0.441554 0.128449 -0.238573 -0.001638 -0.112805 0.244881 0.065515 0.629484 -0.10835 0.066203 0.314681 0.418864 -0.112405 -0.248557 -0.157815 -0.111609 0.124904 -0.234116 -0.570749 0.678989 0.049349 0.234601 0.037008 -0.065265 0.438017 -0.364546 -0.920461 -0.16586 0.168726 -0.285991 0.588203 -0.062713 -0.065798 0.034647 -0.58378 0.22579 0.29574 -0.052932 0.067656 0.184036 0.408132 -0.325661 -0.438165 -0.351843 0.012519 0.668038 -0.422864 0.171075 0.017206 0.251368 -0.508276 0.187267 -0.49183 0.307183 -0.47459 0.166929 0.345619 0.358282 -0.477155 -0.525461 -0.110215 0.326415
炼 -0.333324 -0.018172 0.50098 0.180764 -0.666048 -0.198969 -0.270674 0.397875 0.516555 -0.389216 0.425666 -0.240557 -0.417437 0.015307 -0.555954 0.556763 0.83712 -0.019711 -0.204066 0.204824 0.506409 0.093626 -0.281631 -0.167603 0.403051 -0.183385 -0.318135 -0.477441 -0.568 -0.326011 0.412497 -0.351781 0.151537 0.300607 0.018129 -0.057194 0.491408 0.020143 0.52019 -0.568128 -0.712179 0.096128 -0.388512 -0.112834 0.553744 -0.218084 0.520597 -0.063826 -0.396575 -0.290245 0.522051 -0.52063 0.672216 0.363885 0.048519 0.24284 -0.28906 0.00658 0.10512 0.175905 0.50829 0.142351 0.504318 -0.6523
衰 0.05168 0.039732 0.097799 0.134423 -0.277452 0.437938 0.811705 0.765405 -0.434943 -0.910907 -0.002198 -0.109623 0.049832 -0.517584 0.564557 0.069952 0.661313 -0.191487 0.38037 0.615247 0.082472 0.0261 -0.320388 0.396514 0.284315 -0.149737 -0.391082 -1.0654 0.578564 1.65139 0.670526 -0.975731 -0.202161 0.042073 -0.561616 -0.786525 0.509135 -0.184147 -0.407162 0.784689 0.11348 -0.127137 -0.1605 -0.063091 -0.002114 0.855905 0.287798 -0.191183 -0.230131 -0.784111 0.01829 -0.532739 1.05932 0.022943 0.173877 0.029946 0.170924 -0.795417 0.953675 0.511582 0.363834 -0.883104 -0.204683 0.210405
泳 -0.221046 1.13017 0.371599 -0.25966 -0.464642 0.302451 0.229533 -0.906712 -0.348348 0.133258 -0.168323 -0.501676 -0.47306 0.305008 -0.320965 0.562715 -0.265452 -0.070141 0.057426 0.357291 -0.3038 0.098295 -0.709549 -0.069449 -0.03153 0.490691 0.254705 0.072116 -0.043626 -0.428933 -0.704567 -0.824826 0.667217 -0.364854 -0.407462 -0.024392 -0.530659 -0.47391 -0.53246 0.200626 -0.409596 -0.456572 -0.966399 0.014818 0.556813 0.12106 0.439507 0.239416 -0.019332 -0.662813 0.264875 -0.050352 0.013551 -0.087502 0.244761 -0.705486 0.174799 0.901095 -0.115571 0.923325 0.045265 -0.162703 0.275871 0.750204
其 0.259026 -0.230684 -0.49578 0.088773 0.089657 0.119861 0.032353 0.021982 -0.203991 -0.503936 -0.164028 0.085915 -0.111211 0.396339 0.084938 -0.198682 -0.05441 -0.181627 -0.156421 -0.307633 -0.450482 0.161986 0.022171 -0.086556 0.323417 -0.244213 0.050367 -0.058549 0.223125 0.113279 -0.164561 0.42455 0.209442 0.142928 0.253947 0.230828 -0.261159 -0.21702 -0.292459 -0.178568 -0.019161 -0.033797 0.331916 -0.353478 -0.117785 -0.339191 0.204005 -0.5559 -0.171333 0.135065 0.446111 -0.160469 -0.344358 -0.342349 0.215293 -0.24164 0.377982 -0.113789 -0.146984 -0.045688 0.256213 0.069234 0.487843 -0.286034
闹 0.577073 0.434431 0.029852 0.739783 0.298922 0.263178 -0.095976 0.176293 0.251874 0.276211 -0.819992 0.341263 -0.038568 -0.271446 -0.865192 -0.269517 0.317044 0.037367 -0.19702 -0.393226 0.555712 -0.197893 0.163657 0.29908 -0.408635 -0.526104 -0.209032 -0.073305 0.11501 -0.045042 0.457776 -0.082747 0.888722 -0.195538 0.107458 -0.523342 0.162216 0.23145 0.089327 -0.362109 0.236532 0.313075 -0.110951 0.197226 -1.02339 0.366235 -0.024527 0.503783 0.068146 -0.146121 -0.085789 -0.345747 0.521852 -0.089828 0.183496 -0.530962 0.134979 0.139373 -0.163291 -0.373334 -0.367428 -0.448271 -0.139356 0.42896
驼 0.198891 1.38036 0.417602 -0.268977 0.389322 -0.029626 -0.486413 0.052812 0.86146 0.623784 0.135018 -0.801667 0.113609 -0.074232 -0.030126 -1.04679 -0.397848 -0.199907 -0.201142 0.626325 0.23496 0.029005 -0.454745 -0.281491 0.01477 -0.443238 0.222722 0.144005 0.841126 -0.138292 0.423533 0.033446 0.612203 0.024251 -0.408637 0.230059 0.063087 0.109719 1.10789 0.324808 -0.114763 0.145873 0.522764 0.07111 0.272252 -0.207777 0.038208 0.533852 -0.074575 -0.343422 -0.679424 -0.563297 0.136035 0.06533 0.00806 0.157631 0.079981 -0.102846 -0.173609 0.250338 -0.445249 -0.23246 0.108588 -0.025606
绿 -0.314976 -0.023829 -0.321789 -0.075112 -0.1735 0.020516 0.02609 -0.165758 0.285115 -0.335466 -0.080212 -0.191909 0.064954 -0.173896 -0.530186 0.049254 0.367899 -0.822542 0.035745 -0.064385 0.503243 -0.052993 0.283273 0.585742 -0.283903 0.282678 -0.224342 0.103162 -0.39537 -0.377768 -0.596719 -0.315495 0.153497 0.225354 -0.239229 0.191001 0.112421 0.127309 0.443936 -0.141141 -0.275881 -0.366233 -0.166199 0.563558 0.101201 -0.268669 -0.087723 -0.130846 0.263372 -0.196349 -0.697035 -0.497862 -0.262533 0.299509 0.072421 0.530254 0.369066 -0.182049 -0.154683 0.32002 -0.181493 -0.233666 -0.271039 -0.178891
且 -0.039355 -0.495427 -0.318289 0.204573 0.07421 -0.228268 -0.051956 0.25914 -0.259509 -0.254564 -0.370799 0.029343 0.080003 0.402093 -0.017622 -0.707237 -0.122156 0.020238 -0.195098 0.096737 -0.576044 -0.014475 0.141521 -0.221419 0.009731 0.053714 0.143601 0.314986 0.386092 0.022769 -0.198163 0.112828 0.077075 0.043642 -0.002522 0.331468 0.00545 -0.336203 -0.518882 0.010601 0.18851 -0.021557 0.187084 -0.311369 -0.076856 -0.087607 0.480109 -0.664622 0.108444 -0.057779 -0.077831 -0.162304 0.125447 -0.006713 0.403588 -0.217522 -0.11712 0.117787 0.052046 -0.050158 0.207536 -0.007842 0.295224 -0.039731
愁 -0.883511 -0.109732 -0.410929 -0.529126 0.095902 -0.912284 0.738501 0.66011 0.242792 0.497335 -0.589312 0.407433 0.618604 -0.827804 -0.657038 -0.268962 -0.521036 -0.729819 -0.338477 -0.377259 0.524366 -1.04722 1.0959 -0.21651 0.103346 0.304507 -0.013029 0.000922 0.667468 0.478925 0.099411 -0.165565 0.3937 -0.660138 -0.672716 -0.491036 0.434871 0.550693 0.374625 0.541784 -0.575023 0.47772 0.183242 0.006257 -0.104876 -0.150741 -0.14086 0.352899 -0.073006 -0.498139 0.071714 0.408834 -0.488985 -0.252053 0.821081 0.60036 -0.356479 -0.076559 0.137682 0.463361 -0.266909 0.079321 -0.733774 -0.152354
婪 -0.881547 0.273721 0.663409 -0.123343 0.42685 -0.006777 0.110641 -0.426799 0.229824 -0.062578 -0.552683 -0.951704 0.729319 -0.467442 -0.276735 -0.439411 0.503423 -0.149383 -1.05099 0.345288 0.606964 -0.457515 -0.371316 0.347172 0.392354 0.212118 0.942831 -0.51609 0.169533 0.187768 0.566706 0.172798 0.003421 0.003333 -0.667817 -0.830639 0.281341 0.193809 -0.304612 0.346514 -0.323254 0.252056 0.778175 0.149139 -0.548811 0.431191 -0.521762 0.081944 0.603194 -0.787386 0.327749 -0.390445 -0.170067 0.056972 -0.101312 -1.04484 0.445692 0.480111 0.119712 0.279681 -0.147076 -0.31481 -0.790627 -0.747097
訇 -0.52271 0.120211 0.008289 0.685994 0.069555 0.529436 0.461042 0.116288 0.653158 -0.141712 -0.3028 -0.978094 -0.310187 -0.461531 -0.002081 -0.326187 -0.473689 0.081764 1.28197 0.169629 0.142762 -0.266501 -0.186196 -0.422985 -0.005346 0.223335 0.416969 -0.118381 0.691861 0.046609 0.737144 -0.186282 -0.538752 0.252975 -1.06523 -0.154789 0.381216 0.606506 0.156239 -0.636419 0.193412 -0.15924 -0.035015 -0.036308 -0.183287 -0.430492 0.031453 0.446876 -0.303924 -0.222136 -0.472229 0.060055 -0.201865 0.315056 -0.026453 0.696376 -0.948012 -0.088859 0.12462 0.211455 0.186729 0.297433 -0.457339 0.512904
覆 -0.638484 -0.115022 0.604786 -0.06766 -0.267813 0.716038 0.538433 -0.045873 -0.495006 -0.545349 -0.572147 -0.06419 0.311036 0.123879 0.702281 -0.252412 0.394667 -0.331281 -0.36537 -0.450342 0.744073 -0.055723 -0.20593 0.302502 0.458414 0.302509 0.446821 -0.140448 0.307911 0.08328 -0.170776 -0.275853 -0.532096 0.545488 0.244143 0.377207 0.169416 0.304328 0.326005 0.17057 -0.370408 -0.211208 -0.071218 0.062079 0.067534 0.088999 -0.241762 0.040932 0.698953 0.085882 0.126506 -0.038747 -0.078833 -0.279344 0.075081 0.483893 -0.102041 0.637349 0.379811 -0.397083 0.24641 0.526904 -0.610834 -0.032587
》 -0.049993 0.020275 -0.500863 0.350453 0.957898 -0.071045 -0.158541 -0.099703 0.080054 0.619677 -0.187673 0.101788 0.019638 0.470125 0.299723 0.202842 -0.009324 0.009933 -0.342268 0.05713 -0.41639 0.4001 -0.171041 0.073325 0.174427 0.044532 -0.560351 -0.243571 0.472724 -0.310655 0.201057 -0.257527 -0.58467 -0.509933 0.11335 -0.436848 0.132647 0.345073 0.30489 -0.064107 -0.280872 -0.720894 -0.086581 -0.3576 -0.237982 0.257601 -0.436464 0.149811 0.250861 0.44669 0.178165 0.350335 0.092478 0.206451 0.153765 0.101726 -0.113248 -0.175429 -0.650964 0.073578 0.38949 0.124478 -0.079144 0.290308
喙 0.655764 0.030093 -0.044976 0.28594 0.202208 0.560478 0.335843 0.769952 0.289191 -0.954166 -0.503779 -0.544653 0.173515 0.166765 0.264492 -0.252759 -0.427288 0.079232 -0.40879 -0.401238 1.09256 -0.152796 -0.242784 -0.2342 -0.371746 -0.219527 -0.364416 0.303187 0.284664 0.600949 -1.06167 0.072529 -0.363523 -0.030824 -0.501412 -0.402824 -0.083371 0.277698 -0.177231 -0.289593 0.267831 0.125456 0.559673 0.840109 0.271726 0.098022 0.560856 0.068345 -0.987379 -0.251155 -1.40879 0.038534 -0.239433 0.437762 -0.678261 0.158393 -0.629203 0.050565 0.376272 -0.788685 0.173529 -0.138729 -0.663775 -0.470379
引 -0.053282 -0.147258 0.02247 -0.02013 0.122149 0.068022 -0.025124 -0.075857 -0.018921 -0.206222 0.05701 0.2285 0.192791 0.383553 -0.373785 -0.031339 0.174558 -0.069106 0.324328 -0.376943 0.000185 0.258786 0.550058 -0.036282 -0.173765 0.185028 0.211183 0.048346 -0.002832 0.205627 0.034863 -0.008806 -0.374052 0.20583 1.08189 0.015116 0.316831 -0.069298 0.074941 -0.028934 -0.178756 -0.367291 0.279702 0.065632 -0.1623 0.894713 0.344754 -0.01208 0.132888 0.146179 -0.060585 0.154311 -0.371607 -0.164987 0.301146 -0.067815 -0.138316 -0.246121 0.007992 0.196284 -0.158941 0.075707 0.415033 0.392863
应 -0.500698 -0.139692 0.329049 0.047148 0.109496 -0.024529 -0.020137 0.151859 -0.266153 -0.30353 0.047749 0.169084 -0.108489 0.173564 -0.154768 -0.428848 -0.277523 0.098206 -0.183816 0.151721 -0.231248 0.114297 -0.007762 -0.077509 0.123803 0.388928 0.07416 -0.22688 0.233176 0.007253 -0.045821 0.112029 -0.33236 -0.095615 0.843799 0.121883 0.047693 -0.05064 -0.05555 0.161567 0.206526 0.269226 0.184529 0.304484 -0.059735 -0.097777 0.173105 -0.682459 -0.061779 0.305504 0.195909 0.174289 -0.082956 0.219289 0.195762 0.071592 0.07623 0.013933 0.052565 -0.212086 0.176556 0.110362 -0.0079 0.00089
撘 -0.339369 0.290757 0.345651 -0.476693 -0.331241 0.455075 0.041138 -0.521982 0.077607 -0.275037 -0.008398 -0.251338 -0.128697 0.418205 0.078634 -0.850724 -1.12417 0.382003 -0.209517 0.583556 0.314699 -0.394805 0.546295 -0.184363 -0.319832 0.298401 0.211084 0.261768 0.083163 0.049462 0.610436 -0.356832 -0.086498 0.119035 -1.01147 0.01716 -0.229212 -0.169048 -0.053173 -0.375526 0.270032 0.480631 -0.318863 0.019642 -0.171839 -0.218959 0.140385 0.365332 -0.546309 -0.268016 0.629635 -0.099332 0.010475 -0.300772 0.539818 -0.404288 -0.619032 -0.133407 -0.335528 0.302194 0.930433 0.2962 0.073027 -0.586788
枚 -0.242751 0.035615 0.239851 -0.556809 0.378033 -0.054318 -0.135436 0.190318 -0.175616 0.294361 0.228083 -0.238893 0.488287 -0.267918 0.168081 0.231861 0.003914 0.369997 -0.10559 0.394051 0.040084 0.126448 -0.786351 -0.519646 0.560211 -0.477679 0.043231 1.37224 -1.48599 -0.006851 -0.154385 -0.47396 0.29591 -0.436551 -0.847667 -0.30532 -0.682143 -0.519705 -0.078343 -0.517032 -0.08686 -0.355419 -0.350217 -0.156271 0.118578 0.348925 0.723627 0.144875 0.449774 0.313586 0.548537 -0.226912 -0.68709 -0.618748 0.179635 0.322871 -0.361157 0.430946 0.451294 0.33122 -0.281549 0.208309 0.628373 -0.222656
儡 0.707039 0.566103 0.900975 0.04468 -0.634056 1.35615 -0.521362 -0.489263 0.071822 0.366427 0.624078 -0.555479 -0.918896 -0.215049 0.240281 0.140735 -0.065967 0.554496 -0.094758 0.469374 0.724155 -0.248779 0.156339 -0.608374 0.293831 -0.507359 -0.698308 0.023406 0.764419 -0.105039 1.32268 0.659494 -0.905061 0.649538 -0.612572 0.142843 0.068465 -0.908186 0.063398 -1.05177 -0.076027 0.25125 0.299126 0.939701 -0.30312 -0.054172 0.292029 0.022015 0.494178 -1.36246 0.977572 -0.301692 0.17728 -1.18693 0.712142 0.368208 -0.602402 -0.779927 -0.291085 -0.906431 -0.739112 -0.24467 0.084281 0.000213
厢 -0.34689 -0.064415 -0.090942 0.309815 0.613152 -0.222629 0.831928 0.061285 0.281934 0.785519 0.154503 0.507675 -0.914489 0.40407 0.300439 0.139647 -0.101189 -0.025453 -0.598759 -0.356147 0.188272 -0.602707 0.141893 -0.004968 -0.153501 0.644862 -0.554099 0.125723 0.713404 0.262284 -0.920437 -0.061141 0.70974 0.260103 -0.5242 0.385476 0.119711 0.27031 0.993644 -0.160605 0.069915 -0.023551 -0.002472 0.915123 0.053021 0.408767 0.135558 0.189456 -0.163107 -0.587359 0.619273 0.24344 0.217 -0.015991 0.230527 -0.72467 -0.532931 1.19099 0.242646 0.660885 -0.383164 -0.421427 -0.010075 -0.788352
遇 -0.233544 0.252709 0.017236 0.220666 0.103199 -0.159195 -0.088454 0.252485 0.332877 -0.154108 -0.126262 -0.22487 -0.332259 0.146329 -0.414141 0.066356 0.201922 0.432649 0.457107 0.091827 -0.037211 0.241388 -0.276941 -0.111181 0.093717 -0.102206 0.394965 0.242019 0.261142 0.142603 -0.095102 -0.300992 0.352919 -0.687686 0.682439 -0.211583 0.142079 0.084615 -0.414414 -0.032196 -0.158299 0.052547 0.403341 -0.625936 -0.01835 0.030566 -0.136248 0.049029 0.205679 -0.34671 -0.38137 0.008168 -0.134855 -0.163473 0.762009 -0.194681 -0.206709 0.540394 -0.031102 -0.209861 0.108894 -0.103351 -0.046622 -0.397762
崩 -0.267331 -0.563027 0.12087 0.189074 -0.342815 -0.103713 0.347437 0.197189 0.52451 -0.24771 0.091873 -0.303174 -0.305652 0.175959 0.207273 0.029298 -0.117959 -0.32166 0.273219 0.438665 0.916566 -0.186382 0.322155 0.672456 0.239712 -0.642388 -0.161427 -0.349875 0.076502 -0.083206 0.304885 0.486719 0.053116 0.015388 -0.520613 -0.006694 0.569868 -0.231574 -0.252994 -0.343657 -0.67327 0.350212 -0.044113 -0.859607 0.0974 0.032265 -0.635775 0.79472 0.846031 -0.992335 0.246481 -0.14287 0.258378 -0.026007 -0.576747 0.363719 0.328628 0.539625 0.917685 0.218567 -0.007721 0.089888 0.310792 -0.013285
+ -0.154562 -0.379328 -0.155104 -0.176589 0.605706 0.094406 0.471478 -0.251552 0.056399 -0.11923 0.557987 -0.007082 0.08142 -0.341433 0.069077 -0.222411 -0.16289 0.130553 -0.825482 0.105262 -0.639349 0.636142 0.056313 0.028822 0.127988 -0.312605 -0.117873 0.024215 0.053663 0.225642 0.0788 -0.101324 0.13765 0.160933 -0.276564 -0.246502 -0.83267 0.204596 0.030452 -1.06138 0.077706 -0.599389 -0.39389 0.16938 0.219417 0.471237 0.055263 0.136999 0.349612 -0.069406 0.332365 -0.488193 0.153092 0.400706 -0.355235 0.511265 -0.281609 0.019524 -0.302259 0.388829 0.388087 0.042486 0.478389 -0.186231
循 -0.333847 -0.636358 0.401825 0.19603 0.436769 0.245128 0.664921 -0.312016 0.458303 0.076333 -0.039221 0.153268 -0.222526 -2.6e-05 0.651492 -0.630093 -0.264855 -0.569268 -0.239164 0.25734 -0.034552 -0.091893 -0.604419 0.33387 -0.437919 -0.148646 0.748476 -0.193125 -0.311225 0.10222 0.217448 0.139506 0.403003 0.121246 0.241745 -0.183942 -0.378593 -0.208807 0.070098 0.10186 -0.517835 0.216086 -0.084833 0.111193 -0.354311 0.461573 0.283732 -0.001293 -0.956351 0.425279 -0.707457 -0.396542 0.000547 0.275708 0.080794 0.14038 0.03874 0.114078 0.408491 -0.165525 0.203893 -0.379658 0.412707 -0.243047
芬 0.127361 0.277681 0.19292 -0.633426 -0.79883 -0.578884 -0.384137 -0.250114 0.409953 0.29287 0.121718 -0.229367 0.097279 0.224613 -0.260139 0.056678 0.144347 0.118083 0.633811 -0.093224 -0.227543 -0.209598 0.346996 -0.285038 0.137143 -0.412373 0.27309 0.432851 0.175677 0.074603 0.146748 -0.352483 -0.099801 0.180976 -0.311552 -0.087096 -0.168338 0.29208 -0.52111 -0.114233 -0.431186 -0.313214 -0.221758 -0.021037 -0.259616 -0.464159 0.011922 -0.030405 0.243709 0.443565 -0.480612 0.198522 -0.220977 -0.516416 -0.42951 0.065696 -0.09198 0.209716 -0.640558 0.2294 -0.150666 -0.320963 -0.637562 -0.418412
是 -0.082416 -0.128992 -0.012985 0.358389 0.631644 -0.348831 0.049683 0.195128 0.151509 -0.014425 -0.044238 -0.075662 -0.028129 0.169632 0.041992 -0.29874 0.32638 -0.07355 -0.186114 0.202444 -0.366327 -0.089932 0.285716 -0.164409 -0.124185 -0.094789 -0.007371 0.305442 0.419488 -0.157107 -0.113511 -0.044502 0.028559 -0.054395 0.329505 0.06288 0.048205 0.155475 -0.50774 -0.008892 0.027453 -0.263472 0.181371 -0.281418 -0.044559 -0.481438 0.470587 -0.527622 0.058704 0.26978 -0.097278 0.172311 0.133941 0.069676 0.407928 0.042657 -0.195355 -0.21346 0.500744 -0.222734 0.143575 -0.102507 0.4054 0.340595
械 0.633212 -0.162924 0.095357 0.226817 0.258595 0.75781 -0.282937 -0.225518 -0.207618 0.46839 -0.128814 -0.576346 -0.096597 0.102435 -0.299106 0.129464 0.074761 -0.318464 -0.2016 -0.374298 0.174184 -0.411041 0.311682 -0.925538 -0.52744 0.360734 0.323397 0.087292 -0.034194 -0.027379 0.506377 0.111481 0.727204 0.760311 0.202923 -0.15315 -0.104467 -1.17049 0.133333 0.394987 -0.049839 0.193572 0.721623 0.072987 0.536271 0.698503 -0.125883 0.476697 -0.230937 0.316278 0.673535 -0.019324 0.726289 0.117054 -0.372628 -0.294357 -0.592509 -0.224614 -0.587325 0.023709 0.351882 0.524159 0.738985 0.295438
讲 0.198637 0.094475 0.260714 0.355522 0.417653 0.197076 0.502458 0.008379 -0.145847 0.341597 -0.469304 0.113797 0.08739 -0.391159 -0.107372 0.247001 -0.197484 0.405985 0.153421 -0.542655 0.178986 0.015269 0.184924 0.536165 0.412099 0.339088 -0.398691 -0.242681 -0.096004 -0.724404 0.632804 -0.332988 0.181288 -0.338072 0.756666 -0.031879 0.125842 0.430852 0.085703 -0.55063 0.011323 0.273137 -0.197852 -0.187754 0.325205 -0.249663 -0.080251 -0.662749 -0.091787 0.44464 0.11239 -0.337417 0.089919 0.529369 -0.021257 0.001435 -0.185314 -0.144635 -0.108876 0.241725 0.018165 -0.200971 0.265358 0.300587
废 -0.280416 -0.725072 0.732257 -0.001899 -0.661139 0.271068 -0.153742 0.017539 -0.360509 -0.315702 -0.004099 0.176122 -0.770456 -0.153933 0.561068 0.020448 0.57182 0.122257 -0.413625 -0.032077 0.451042 -0.020521 -0.168448 -0.455956 0.291797 -0.098186 0.685145 -0.284527 -0.083163 0.100932 0.085862 0.318952 0.064757 -0.13762 0.146037 -0.314064 0.257377 0.064876 0.286909 -0.126897 -0.44361 -0.24321 -0.005964 -0.204818 -0.209329 0.6898 0.474017 -0.047433 0.043894 -0.691254 0.875099 0.677979 -0.512286 -0.47381 0.176991 0.561036 0.332606 -0.165347 0.159461 0.090053 -0.187807 -1.0347 -0.23172 -0.115487
爷 0.684739 0.387943 0.08686 0.220313 -0.398138 0.524225 -0.100179 -0.114205 0.1719 0.766462 0.561377 -0.678093 0.582969 -0.544139 0.152068 -0.104088 -0.380941 0.36008 0.68984 0.08301 -0.057045 0.152366 -0.068135 -0.770369 0.491327 0.370781 -0.267573 0.172466 0.226971 0.200029 0.021413 -0.110009 0.085196 -0.260764 -0.305755 0.326783 0.559879 0.927641 0.126233 0.037418 0.001611 0.136477 0.088408 -0.409694 -0.639484 -0.469679 0.15923 0.027374 0.350224 0.343011 0.459216 -0.407087 0.141656 -0.15347 0.435527 0.335955 0.25365 -0.075617 -0.117967 -0.459764 0.001039 -0.538387 0.42136 0.186319
咸 -0.531255 0.05226 0.065994 0.098644 -0.754606 -0.265602 0.44945 -0.15009 -0.708006 0.718925 0.070233 -0.428199 -0.576849 -0.177462 0.235594 -0.351836 0.195154 0.077717 -0.129979 0.150963 -0.170438 0.533037 0.115018 0.575511 0.012128 -0.354582 0.278108 0.428514 0.269796 -0.811314 -0.469428 0.270656 0.514731 0.39736 -0.757862 -0.010676 -0.147288 -0.283454 0.70347 -0.246626 0.371232 0.706338 -0.510907 0.036493 -0.37375 0.171773 0.279986 0.161608 0.658775 0.723267 -0.886508 0.016641 -0.295792 0.060353 -0.133924 0.487087 0.271897 -0.17537 -0.205506 0.05354 -0.322506 -0.998993 -0.639589 -0.30537
贞 0.549124 -0.145808 0.813461 -0.543739 -0.250862 -0.14756 -0.129763 0.600049 0.126989 0.769384 0.303248 -0.132451 0.304876 -0.18914 0.417301 0.552272 -0.298096 -0.240894 0.296206 0.027131 -0.095904 -0.154173 0.340778 -0.018211 -0.107151 0.06546 -0.287156 -0.358083 0.582586 0.399149 -0.024531 0.255205 0.52013 0.08418 -0.868873 0.114946 -0.272841 -0.105215 -0.40108 0.046699 0.046256 0.322387 -0.486767 -0.270714 0.030096 -0.100174 -0.333591 -0.47042 0.20798 0.219314 -0.130519 0.798822 -0.04095 -0.058223 -0.176244 -0.258204 0.100934 0.231015 0.030787 0.019779 0.870852 -0.130029 -0.160148 -0.304198
鸿 0.388698 0.392651 0.407051 -0.477797 -0.424241 -0.223729 -0.314931 -0.028357 -0.196282 0.584706 0.423406 0.097896 0.456964 0.609658 0.203821 -0.106643 -0.291143 -0.498234 0.352474 0.336225 0.155286 -0.165283 0.178209 0.108741 -0.491569 0.231823 -0.088541 -0.698693 -0.625826 0.032704 0.115806 -0.00858 -0.171701 -0.646926 -0.239765 0.094774 -0.486405 0.365141 0.195471 0.077122 0.00651 -0.071037 -0.082713 -0.054636 -0.418927 -0.347479 0.037477 0.470726 0.491997 -0.337291 -0.118664 -0.720958 -0.369586 0.750874 0.179418 -0.329264 -0.727508 -0.170422 0.036581 0.409052 0.280252 0.051121 -0.313201 0.193767
胀 0.296648 -1.21385 -0.223578 0.028283 -0.507068 0.52822 0.496309 0.482859 -0.274032 0.253315 -0.387199 0.040238 0.980753 -0.003773 -0.547503 -0.617947 0.267585 0.101973 -0.262447 0.24329 -0.013885 0.08824 -0.382883 -0.352052 0.322486 0.234493 0.482072 -0.413682 0.349705 -0.012052 0.079924 0.353395 0.941543 0.167788 -0.187941 -0.868 0.476018 -0.540216 -0.409208 0.638727 0.854792 -0.464276 0.040996 0.041784 -0.739128 0.581101 0.127057 0.974314 -0.223059 -0.190166 -0.095234 -0.757251 0.582932 0.24921 -0.045407 -0.067723 0.534899 0.495135 -0.165319 -0.474247 0.230071 -0.421906 -0.122315 -0.264382
橇 -0.357046 0.852212 1.15606 -0.39129 0.211074 0.488518 -0.447941 -1.02962 -0.336726 -0.246219 0.294668 -0.749563 0.725548 0.824352 0.357766 -0.148375 -0.310478 -0.137013 -0.648709 0.958866 0.485209 0.009454 -1.26782 0.390078 0.013241 0.677056 -0.060193 1.31449 0.529986 0.049543 -0.010801 -0.208481 -0.597191 -0.149814 -1.11617 0.46045 -0.369947 -0.149411 0.037472 -0.202003 0.630312 0.249923 0.63492 -0.306663 0.200183 -0.115347 0.197859 0.688405 1.02123 -1.01496 -0.923141 -0.484643 0.46165 0.291761 0.195018 -0.197208 0.809853 1.00132 -0.621608 0.559956 -0.188145 0.162327 -0.658158 -0.705856
视 0.610992 -0.024571 0.21819 0.296508 0.464942 -0.110659 0.421614 -0.14443 -0.303213 -0.136241 -0.461088 0.136111 0.387394 -0.328705 0.33732 0.357467 0.333295 0.153766 0.217218 -0.079218 -0.680495 0.618167 0.111204 0.04276 0.015146 -0.190268 -0.025569 -0.480991 0.034031 -0.639639 -0.246833 -0.368048 -0.150671 -0.173476 -0.038763 0.234168 0.048731 -0.467373 -0.241509 -0.220088 0.386466 0.046281 0.162903 0.293094 0.161118 0.280001 -0.290262 -0.02669 -0.022218 -0.032286 0.378772 -0.115838 -0.123038 0.02784 0.440412 -0.258395 0.424437 0.456385 0.386512 -0.140432 0.018423 0.068609 0.127073 0.275785
赉 -0.322981 -0.361534 0.05213 -1.22047 0.077398 -0.765691 -0.460007 0.424457 0.319606 -0.236072 0.030954 -0.255113 -0.674718 0.998497 -0.658836 -0.732113 -0.064792 0.188258 -0.121946 0.473009 0.389356 -0.472807 1.28511 0.024696 -0.005733 0.142694 -0.269657 0.857824 -0.193776 -0.27567 0.437374 -0.209155 -0.767399 -0.83814 -0.746914 0.051736 -0.032465 -0.444847 0.406763 -0.947537 0.439592 0.276905 0.199681 -0.03946 -0.560646 0.072088 0.504776 1.05214 -0.040008 -0.278364 0.440396 -0.562813 -0.011488 -0.03546 -0.647096 0.223639 -0.824272 -0.521384 -0.224954 -1.08718 0.209031 -0.23853 -1.74142 -0.645452
俊 0.154954 0.474265 0.515833 -0.606557 -0.630048 -0.335977 -0.747728 0.432545 0.08954 0.612945 -0.036716 -0.354588 0.181376 0.248659 0.289231 -0.77166 -0.228952 0.047377 0.835199 0.200615 -0.05414 0.075727 -0.052824 -0.516324 -0.238789 0.098978 0.095652 -0.037102 0.030619 0.127023 -0.424455 -0.311811 0.548546 -0.270129 -0.072491 -0.109981 -0.104698 0.448703 0.00944 0.257811 -0.14642 0.323178 -0.151928 0.083873 -0.014967 -0.316243 -0.472104 0.11253 0.211864 0.596459 0.089658 0.276144 -0.325668 -0.098878 -0.185642 -0.054486 -0.662702 0.224807 0.232625 0.51192 0.764974 -0.277894 -0.316485 0.157199
契 0.276197 0.008429 0.628003 -0.284504 0.507181 -0.439749 -0.279211 0.121853 -0.229134 -0.101763 0.536769 -0.068891 0.661091 -0.592344 0.531027 0.598448 0.099362 0.014119 0.128997 0.042602 0.227173 0.025075 -0.141661 0.431001 0.486928 -0.018823 0.900962 0.630403 0.692743 0.166236 0.363821 -0.415191 0.315873 0.020589 -0.641757 -0.127057 0.407543 -0.140677 -0.037617 0.474326 0.134201 -0.061109 -0.211434 0.227515 0.402081 -0.206842 0.314235 -0.388855 -0.061039 0.025728 0.483933 -0.016023 0.1447 0.280035 -0.070429 -0.082299 -0.106624 -0.156025 -0.47121 -0.330084 -0.12673 0.577799 -0.391262 -0.018381
磐 0.429815 -0.421355 1.71012 -0.556725 -0.304508 -0.071916 0.288622 0.926964 0.65026 -0.012914 0.438549 -1.10838 0.162301 0.687177 0.287492 -0.646591 0.371669 0.208123 -0.886348 -0.404672 -0.409284 -0.310543 0.150107 0.974567 0.139313 0.322014 0.241174 0.118882 -0.330937 -0.455422 -0.166953 0.637202 0.672919 0.054132 -1.03498 0.672805 -0.335253 -0.826666 0.203204 0.295516 -0.127488 0.117492 -0.010917 0.05792 0.007159 0.976066 0.668399 0.247643 -0.074847 -0.637621 -0.642389 0.597954 0.009779 0.245441 -0.410188 0.248985 0.465327 -0.174534 0.249482 -0.123463 0.730859 0.541511 0.643235 0.41909
寒 0.083928 -0.511119 0.437791 0.440742 -0.327638 -0.003466 -0.49528 -0.515629 0.244097 0.458745 -0.419637 -0.342842 0.000966 0.006349 -0.507612 0.314594 -0.538711 -0.022558 0.447245 0.079307 0.61737 0.161744 -0.051169 0.181557 -0.07621 0.537563 0.478234 -0.29631 0.737358 0.485172 -0.004524 0.406843 0.212406 -0.554078 0.096042 -0.419493 -0.198777 -0.029063 -0.48694 -0.016321 -0.082705 -0.197131 -0.575541 0.066831 -0.281799 -0.458386 -0.204539 -0.166635 0.505134 -0.649537 -0.677691 0.102745 0.289706 -0.22748 0.587543 0.342583 -0.25097 -0.11794 0.526994 0.430135 0.279043 -0.13735 -0.360211 -0.172727
录 0.043658 -0.004302 0.212854 0.232267 0.583445 -0.15208 0.206792 -0.17161 -0.078083 -0.228736 -0.307302 0.436704 0.018407 -0.006872 0.472071 -0.034722 0.030169 0.524623 -0.923626 -0.419794 -0.403971 0.602593 -0.120199 -0.119277 0.080036 -0.102039 -0.331818 -0.428238 -0.102195 0.360305 -0.059453 0.126983 -0.066964 -0.062132 0.120184 -0.469845 0.054319 -0.077297 0.284275 -0.452023 0.006179 0.279471 -0.188142 -0.147813 0.344508 0.476355 -0.370998 -0.383103 -0.081279 0.129464 0.011427 0.317488 -0.117078 0.171623 0.001281 -0.321785 0.176306 -0.002118 -0.262639 0.272238 -0.428863 0.489367 -0.076178 0.137439
黔 0.003529 0.699868 0.143079 -0.258353 0.289094 0.156965 0.087458 0.307009 0.358881 0.016564 0.416879 0.040728 -0.366904 0.034577 -0.347234 -0.32876 0.490051 0.405621 -0.054215 -0.325585 0.544774 -1.06195 0.304184 0.552191 0.125571 0.235901 -0.525738 -0.538614 -0.293035 -0.404735 -0.037516 0.959088 0.449732 0.553555 -1.10663 -0.131526 0.226294 -0.612929 0.409058 -0.028837 -0.655291 -0.523097 -0.968125 -0.356941 0.319284 0.946379 -0.119068 -0.085955 0.749392 0.813077 -0.880356 -0.451477 -0.398974 -0.480301 -0.741901 -0.169096 0.028817 -0.219871 -0.399247 -0.096199 -0.740098 -0.820237 0.186507 -0.153031
典 -0.091713 0.291341 0.202445 -0.32074 0.744556 0.18434 -0.199242 -0.174187 0.282036 0.703469 -0.241495 0.157298 0.135528 0.421534 0.596157 0.546788 -0.338397 -0.273646 -0.106945 -0.545061 -0.265552 -0.16248 0.100766 0.109872 -0.305261 -0.282685 -0.616286 0.102461 -0.193445 -0.117595 0.162877 0.262894 -0.013148 -0.32324 -0.018304 -0.144528 -0.038222 0.251561 0.245892 -0.405403 -0.230012 0.229132 0.086468 0.303842 0.595071 0.002624 0.575882 -0.097816 0.130438 0.20302 0.528718 -0.291139 0.158284 -0.083481 0.14463 -0.004516 -0.030845 0.260228 -0.08666 0.288646 -0.423107 -0.093012 -0.244644 -0.077099
教 0.132905 0.176837 -0.157469 -0.03914 0.363916 0.120957 0.250955 -0.587912 0.355375 -0.237718 0.065358 -0.398776 -0.021511 -0.489645 0.568802 0.337847 -0.282503 0.095725 0.445506 -0.259564 -0.159586 0.009989 0.196926 0.360521 -0.012749 0.52069 -0.606128 -0.151842 -0.138298 -0.021402 0.593564 -0.200947 0.254354 -0.032494 0.843812 -0.233912 -0.376981 0.086593 0.112656 -0.057434 -0.053375 0.239469 0.181038 -0.219934 0.257637 -0.674892 0.157208 -0.348868 -0.138594 0.379746 0.311587 -0.112479 -0.162946 0.382447 -0.39926 0.197868 0.271749 -0.200665 0.166349 0.192518 0.24865 0.0233 -0.226585 0.275895
柚 -0.29124 -0.327289 0.186892 -0.137325 0.437026 0.566518 -0.544203 0.596459 0.413195 -0.413388 0.785902 -0.437735 0.070918 0.2651 0.509348 0.73999 0.047343 0.237024 -0.489391 0.272262 0.571741 0.196218 0.131908 -0.769297 -0.73247 0.193259 -0.49895 -0.0962 0.151338 0.593026 0.25589 0.081078 -0.133861 0.504891 -0.994166 0.953742 0.174518 0.468407 -0.010902 -0.262728 0.493026 0.114096 -0.919843 0.748282 0.399211 -0.276373 0.546026 0.03972 -0.434916 -0.246334 -0.612043 0.179887 -0.055086 0.517626 -0.322543 0.049241 -0.348932 -0.053982 0.321713 0.000148 -0.026376 -0.026788 -0.260678 -0.271271
也 -0.257822 -0.056535 -0.259442 0.663018 0.355259 -0.117936 -0.166275 0.677064 -0.361838 -0.118597 0.09538 0.169167 -0.096489 0.446364 -0.06575 -0.190461 0.068759 -0.153927 -0.141468 0.282474 -0.025935 -0.125612 0.342166 -0.194539 0.150624 0.149864 -0.182197 -0.090795 0.663906 -0.328709 -0.217714 -0.498826 -0.257198 -0.132704 0.725173 -0.000297 0.009586 0.135166 -0.397327 0.15299 0.054775 0.30633 0.387454 -0.112673 -0.100902 -0.164458 0.338963 -0.290122 0.076825 0.291969 0.074492 0.296491 -0.051777 0.367427 0.022196 0.037029 -0.009934 0.153124 -0.418529 -0.213413 0.456134 -0.171926 0.110507 0.309192
淞 0.542126 0.192282 0.618149 -1.46026 -1.0889 0.507548 0.071904 -0.35581 0.265038 -0.465035 -0.185234 -0.610246 -0.035878 -0.023235 0.121015 0.569344 0.464303 0.124527 0.004722 1.24318 1.21889 -0.263134 0.708485 0.39457 0.349463 0.263908 0.067511 0.163332 0.379824 0.199525 -0.077191 0.627159 -0.199946 -0.698821 -0.07168 -0.393197 0.219371 0.572495 0.138756 -0.200434 -0.109589 -0.18744 -0.642371 0.370032 0.193778 0.048895 0.933627 0.016946 0.928996 0.203429 -0.499025 0.062068 -0.502614 0.645219 0.048419 -0.13729 -1.14435 -0.493441 -0.942349 0.358989 -1.47619 -0.317967 0.450399 0.672538
艺 0.371147 -0.063425 0.211787 0.08482 0.298641 0.098558 -0.349053 -0.498281 0.11823 -0.17231 -0.419787 -0.268403 0.031651 -0.186862 0.08976 0.285448 0.776888 0.335013 0.085981 0.310646 0.034988 -0.021788 0.192089 0.376353 -0.654486 0.069581 -0.647939 -0.352325 -0.039368 -0.14733 0.16377 -0.390029 0.206441 0.354853 0.268503 -0.258859 -0.135646 0.332626 0.073281 -0.64899 -0.404739 0.05849 -0.14143 0.343726 0.560804 -0.077475 0.107118 -0.204935 0.119932 0.318655 0.566396 0.114086 -0.058779 0.321041 -0.086009 -0.54898 0.392717 -0.004171 -0.323162 0.134668 0.161294 -0.210825 -0.45866 0.044055
秦 0.322808 0.190735 0.300942 0.000456 -0.169437 0.67512 -0.068541 0.616605 -0.769736 0.156919 0.202236 -0.549264 -0.57326 -0.335676 0.066973 -0.28756 0.028219 0.185961 0.010692 -0.762531 -0.237878 -0.114609 0.597039 0.300487 0.190003 0.084098 0.099015 -0.556425 -0.394123 -0.055274 -0.195835 0.123771 0.408201 -0.175746 -0.393199 -0.232446 0.125479 -0.024184 0.109229 -0.122665 -0.129859 -0.139709 -0.21006 -0.147832 -0.190829 -0.317567 0.071497 0.491832 0.143516 0.162115 0.201954 -0.102243 0.654833 -0.375166 -0.278598 -0.181388 0.122262 -0.065255 -0.133223 0.296647 -0.219498 -0.070714 0.304503 -0.540276
嵩 0.201501 0.344497 0.644095 -0.302481 -0.726809 0.069507 -0.910823 0.195845 0.410594 0.186499 -0.667514 -0.866399 -0.385003 0.403678 -0.047272 -0.75169 0.300909 -0.162367 -0.919107 0.332018 0.62044 0.483882 -0.078499 0.548699 0.239195 0.355951 -0.49081 -0.178403 0.253171 0.116581 0.13602 0.947817 -0.117347 0.279991 -0.51515 -0.119684 -0.38054 0.152339 -0.467839 -0.278964 0.740233 0.149148 0.281996 0.157208 -0.784639 -0.457494 -0.203983 0.285889 0.491975 0.20228 -0.52958 -0.210064 -0.234703 0.120624 -0.090039 0.523548 0.226228 0.760101 0.02186 -0.086799 -0.409745 -0.145948 -0.217517 -0.302223
峨 -0.892394 0.674618 -0.817762 0.281427 0.378127 -0.446299 0.265827 -0.291078 -0.265061 0.506229 -0.14114 -1.03333 0.407997 0.429491 0.194221 0.083513 -0.171639 0.28058 -0.657497 -0.53054 1.23801 -0.064033 0.823707 0.695809 0.92685 0.221084 0.509494 -0.291445 -0.720569 -0.262354 -0.125027 0.113365 -0.268759 -0.048564 -0.82108 0.016135 -1.21893 0.117938 -0.214131 0.201412 0.011111 0.355912 -0.554537 0.619501 0.053928 -0.043726 -0.133702 0.641075 -0.152813 -0.245951 0.295543 -0.595835 0.305584 0.130853 0.656388 -0.099681 -0.757097 0.226539 0.034227 0.042281 -0.799333 -1.00249 -0.275165 0.368559
k -0.360664 -0.74571 0.088619 0.025178 0.170843 -0.545125 0.408154 -0.632144 0.256509 0.089173 0.245353 0.167276 0.378049 -0.352759 -0.585794 -0.117415 -0.052693 0.010399 -0.356188 -0.099884 -0.555605 1.16931 0.324176 -0.574544 0.179437 -0.065034 0.010346 0.037393 0.165733 0.123729 0.4141 -0.33325 -0.051734 0.606242 -0.271023 -0.141301 -0.945165 0.115215 -0.357781 -0.340976 0.623331 -1.02588 -0.072785 -0.039173 -0.790422 0.790053 -1.15143 -0.390234 0.264598 -0.184318 -0.155862 -0.000392 0.152151 -0.307005 -0.420521 0.852927 -0.139166 0.416822 -0.8902 0.346533 0.537304 -0.270676 0.673338 0.120888
括 -0.092771 -0.1505 0.25821 -0.044792 0.354929 -0.170629 0.11283 -0.432438 0.210997 -0.16921 -0.17708 -0.166198 0.150902 0.134388 0.12523 -0.289383 0.425382 -0.183571 0.006059 -0.020637 -0.601867 -0.076751 0.085763 -0.059392 -0.451493 -0.095322 0.104274 0.339909 0.044362 -0.181729 -0.052416 0.216614 0.137349 0.229725 -0.405755 0.220129 -0.079036 -0.198608 -0.081423 -0.129114 0.310159 -0.456295 0.127783 -0.18264 0.085669 -0.549681 0.186773 -0.222697 -0.093509 0.116675 -0.004713 -0.008509 0.285909 -0.306801 0.389677 -0.014696 -0.418669 -0.235575 0.637485 0.045426 -0.279023 0.142827 0.415733 0.077475
景 -0.064894 0.044311 0.405272 -0.497865 0.173534 -0.334729 -0.07231 0.401172 -0.057315 0.326802 -0.535481 -0.337782 -0.126695 0.136913 0.178258 0.091288 -0.106046 -0.238143 -0.226068 -0.123115 -0.184832 0.064978 0.090618 0.206303 -0.054727 0.013073 -0.050468 -0.304601 0.074142 0.064864 -0.985898 -0.223995 0.269917 -0.149284 0.025394 -0.008062 0.26731 0.278753 0.276951 -0.17834 -0.216651 0.295122 0.025386 0.259478 0.037737 -0.044379 -0.620333 0.181599 0.343085 -0.045608 0.043457 -0.050907 -0.339394 0.736935 0.373224 -0.387942 0.044117 0.347991 0.47549 -0.130597 -0.120643 -0.248039 -0.536583 -0.018719
併 -0.228241 -0.485492 -0.045536 -0.75592 -0.443169 0.062445 -0.117766 0.086176 -0.24465 -0.473455 0.191348 0.751214 0.225025 -0.563987 1.10158 -0.164419 0.031064 -0.173911 -0.476509 -0.380525 0.150296 0.296098 0.109269 -0.587212 -0.239087 -0.737762 -0.177168 0.114836 0.3777 0.42947 0.506567 0.15152 -0.05734 0.176338 0.126448 -0.524277 -0.063402 -0.413783 0.052399 0.405464 -0.150421 -0.040215 -0.066515 0.464547 -0.389965 -0.159879 0.273693 0.213891 -0.446423 -0.859711 0.307322 0.269098 -0.274414 0.174162 -0.063689 -0.147292 -0.01035 -0.247109 -0.406766 0.398087 -0.536151 -0.201879 0.402326 -0.277471
滴 -0.165236 -0.883571 -0.936223 -0.196116 -0.079255 0.518388 0.22142 -0.445175 0.506183 -0.076883 -0.033403 0.076421 0.643222 -0.031329 -0.098867 -0.389042 0.539992 0.575218 -0.791212 -0.446873 0.551957 0.352949 -0.655029 0.045243 0.070577 0.454922 0.659938 0.164062 -0.243016 0.055634 -0.647335 0.173115 -0.564067 -0.266903 -0.232595 -0.153563 0.660594 0.40006 -0.383219 -0.087116 -0.499629 0.327285 -0.698225 0.116095 -0.46924 0.210644 0.151113 0.426334 -0.060399 -0.624821 -0.487387 -0.103196 0.080456 -0.10155 0.413722 0.175151 -0.566002 0.194833 0.219554 -0.286715 0.207116 -0.025023 0.069445 -0.472453
剷 -0.390862 0.383726 -0.768288 -0.011223 0.42029 0.287251 0.522355 -0.152422 -0.815772 -0.170667 0.246555 0.000479 -0.350508 -0.011275 0.400562 -0.822636 -0.254525 -0.030822 -0.587085 0.019548 0.288124 0.388288 0.210701 -0.700028 0.535686 0.072188 0.736349 0.09648 -0.167372 -0.102898 0.207846 -0.573804 -0.538275 -0.130327 -0.809053 -0.113491 0.245418 -0.676839 0.657651 -0.008171 0.804345 0.338391 -0.584891 0.051432 -0.614838 -0.070809 0.120366 0.546039 0.794847 -0.966287 0.229413 0.007389 -0.587305 -1.82659 0.774342 0.842244 -0.373699 -0.374741 -0.020636 0.695019 0.192865 -0.365996 -0.779277 0.490107
凶 -0.100566 0.256572 0.00165 0.10675 0.30257 -0.220171 0.148656 0.593309 0.249449 -0.264332 0.273314 -0.293032 -0.366511 0.524447 -0.485815 -0.554019 -0.854867 0.088396 0.283421 0.193271 -0.205376 0.541793 -0.638251 0.652264 -0.145502 0.867408 -0.012345 0.918619 0.095933 0.290966 0.014801 0.667355 0.798315 -0.826068 -0.1434 -0.33781 0.128353 -0.34494 0.988769 -0.741725 -0.463471 0.583577 0.251115 -0.132749 0.009814 0.675143 0.200695 0.062802 0.459755 0.074158 0.002389 0.706289 0.016697 -1.10343 0.016599 -0.07909 -0.635806 -0.926594 -1.01088 -0.097404 0.309846 -0.100121 -0.280552 -0.687763
畹 0.288917 0.442728 0.227584 -0.209242 -0.13179 0.273751 -0.043762 -0.026394 0.307195 -0.097908 0.289579 0.098373 0.547313 -0.137076 0.442625 0.304966 -0.295377 0.072183 -0.95311 -0.206423 0.718357 -0.378234 0.617146 0.330878 0.272394 -0.144251 0.289586 0.442677 0.245471 -0.329792 0.137172 0.471583 -0.26042 -0.596265 -1.37993 -0.149128 -0.255003 -0.359648 0.821996 -0.002452 0.460521 0.185636 -0.191661 0.240695 -0.710624 -0.234268 0.5091 1.0284 0.276882 -0.598518 -0.333176 -1.08616 -0.290201 -0.669956 -0.191289 0.024861 -0.926282 0.423029 -0.061688 -0.033864 0.093376 -0.036188 0.654475 -0.127715
铸 0.149152 0.027889 0.641408 -0.55897 -0.364469 0.411102 0.020541 0.276164 0.142883 -0.274972 0.740697 0.117023 -0.00289 0.539059 -0.147319 -0.374782 0.295495 -0.345324 -0.228813 -0.336157 0.499848 -0.657813 0.250432 -0.370875 -0.467987 -0.228156 -0.297641 0.035188 -0.148157 0.078599 0.565524 -0.001814 0.729243 0.249065 0.109493 -0.243635 0.188892 -0.171755 0.369675 0.032952 -0.43962 -0.517547 -0.401606 -0.810879 0.399547 -0.180254 0.748272 0.255834 0.650649 -0.388609 0.018436 -0.499508 0.288708 -0.011121 0.372523 -0.090063 0.207395 -0.150134 -0.492502 -0.057864 0.146866 0.296827 0.024744 -0.352136
须 -0.67878 -0.220009 -0.221283 0.318198 -0.49391 -0.151645 -0.095737 0.116734 -0.268812 -0.360005 -0.099032 -0.148214 0.332331 0.460166 0.364126 -0.716586 -0.507331 0.076809 -0.726121 0.171397 0.094695 0.046138 0.010914 -0.100883 0.295823 0.292825 0.078529 0.009648 0.344555 0.106053 -0.266105 0.320748 0.24485 0.183545 -0.206985 0.598526 -0.28201 -0.300504 -0.516201 0.982011 0.340751 0.175954 -0.191407 -0.367818 -0.14646 -0.025201 0.120826 -0.887846 -0.196635 0.170149 0.108738 -0.228929 -0.05338 -0.190549 -0.262486 -0.506264 -0.235308 -0.07963 -0.333493 -0.428192 0.163089 0.214041 -0.019611 -0.063909
基 -0.31224 -0.028596 0.233476 0.047645 0.000322 -0.223748 0.220593 0.186388 0.440543 -0.081761 0.734331 0.010931 -0.303005 -0.330074 -0.175229 0.31055 -0.211973 -0.372442 0.412398 -0.030268 0.133685 -0.010809 0.064185 0.149061 -0.161099 -0.071308 0.255066 0.275649 -0.121502 0.482652 -0.126706 -0.007453 -0.451079 0.269697 0.415781 0.179918 -0.021157 -0.237824 0.266843 -0.057959 -0.278158 -0.202751 0.635005 -0.055614 0.048953 -0.357286 0.056555 -0.221319 -0.229834 0.729654 0.260908 -0.093481 -0.131129 0.513881 -0.400965 0.239792 0.479686 0.088361 -0.040917 -0.064174 -0.230105 -0.101591 -0.18985 0.442638
广 0.304367 0.011096 -0.088105 -0.333049 0.019195 0.001546 -0.028694 -0.009967 -0.314555 -0.27887 0.047012 0.37443 -0.006415 -0.122701 -0.143444 -0.014237 0.021529 -0.237258 0.060508 -0.166045 -0.459303 -0.139718 0.531698 0.519266 -0.286483 0.327247 -0.031903 -0.489474 -0.522327 -0.104031 -0.209463 0.568125 -0.081926 0.035312 0.409967 0.318373 -0.118062 0.099596 0.165102 -0.009802 0.063603 -0.378404 -0.405446 0.302997 -0.0661 -0.073269 -0.163241 -0.017008 0.164938 0.334251 0.207669 0.101915 -0.283822 0.265556 0.069376 0.108943 0.514572 0.038999 -0.073487 -0.208686 -0.40157 -0.361876 -0.061179 0.098086
巾 0.136857 -0.447806 -0.401257 0.366621 -0.196992 0.23354 -0.407674 -0.095527 -0.509429 -0.875618 0.768978 -0.37403 -0.128633 0.326518 0.147281 0.044198 -0.296944 0.177194 0.91553 0.897881 1.45471 -0.085793 -0.649419 -0.161783 0.128513 -0.033873 -0.409246 -0.256562 -0.204321 -1.13258 0.478244 0.338514 0.550052 0.24872 -0.58056 -0.001745 -0.14268 0.839083 0.388225 0.544791 -0.141647 -0.654997 -0.117246 0.330363 0.403352 0.233553 0.186191 -0.240594 0.328011 -0.35197 -0.350917 -0.492057 -0.117331 -0.169955 0.014738 -0.392565 -0.810949 -0.464205 -0.276466 -0.086312 0.445758 0.200285 -0.524708 0.504488
沉 0.35001 0.44872 0.15561 0.278703 -0.507276 -0.330843 0.292182 0.201413 -0.272864 -0.179648 -0.037329 -0.046445 0.31938 0.224593 -0.049239 -0.106308 -0.302185 -0.144362 -0.347526 -0.541946 0.024751 -0.297195 0.495716 -0.036107 -0.01845 -0.501325 0.097549 -0.076331 -0.312414 0.904637 0.210125 -0.510754 0.194799 -0.5497 -0.19858 -0.451064 -0.422823 -0.003905 -0.172764 0.2477 -0.03216 0.003659 -0.205908 -0.114629 0.248357 0.040096 0.380927 0.205116 0.344128 -0.569623 -0.787424 0.400167 -0.084391 0.428972 -0.118951 0.595872 0.490162 -0.064107 0.453877 -0.356124 0.513167 0.235734 -0.085888 -0.389552
醋 -0.141219 -0.465312 -0.280321 -0.301677 -0.389448 0.037158 0.140405 -0.706123 0.057671 -0.37358 0.322713 -0.404301 0.039435 -0.050541 -0.341137 -0.373282 -0.222487 -0.016947 -0.055631 0.747745 0.875541 0.038259 -0.236373 -0.983139 -0.08079 0.259869 0.719073 0.355294 -0.636738 0.002375 0.690854 0.180748 0.183435 -0.238103 -0.298561 -0.424227 0.579279 0.379747 -0.25145 -0.415113 -0.200347 -0.082427 -1.11859 -0.042903 0.361481 -0.311522 0.417131 -0.471345 -0.011578 -0.075804 -0.57735 0.299406 0.845002 0.57714 0.051483 0.532072 -0.20318 -0.296509 0.227253 0.535755 -0.084793 -0.326263 -0.604825 -0.255853
上 0.004155 -0.292062 0.046155 0.732697 -0.063458 -0.237054 -0.111269 0.219144 0.230762 -0.286254 -0.344967 0.60159 0.147551 0.44856 0.365921 0.226835 0.150655 -0.265864 -0.031951 0.433283 -0.204016 0.001669 0.238925 -0.034575 0.291955 0.320467 -0.100336 0.319638 -0.174577 -0.095037 -0.607828 -0.169851 -0.01189 0.112531 0.477714 0.023877 -0.015757 0.10883 0.058985 0.180854 -0.225308 -0.105083 -0.194612 -0.070915 0.067092 0.127222 -0.197666 -0.182536 -0.064323 0.119852 0.093286 0.291626 -0.060435 0.060678 0.167125 0.029674 0.071872 -0.308272 -0.313256 0.0524 0.070754 0.18038 0.375961 0.499569
后 -0.190606 -0.31326 -0.439517 0.507029 -0.380642 0.163428 0.007898 0.407966 -0.060509 -0.173645 -0.212703 0.564698 -0.123219 0.452468 0.516393 0.242139 0.199045 -0.055255 0.088383 0.035615 -0.048943 0.083278 0.316543 -0.327602 0.171037 -0.040548 -0.256205 0.113882 0.362342 0.013199 -0.354705 0.231527 -0.196464 -0.554952 0.272306 -0.334191 0.144261 -0.197383 -0.185612 0.210941 0.080602 -0.197712 -0.037195 -0.26308 -0.100612 -0.253923 0.093923 -0.122715 0.148403 -0.015197 0.51122 0.319311 0.11332 0.001756 -0.041596 0.03484 0.047621 0.131306 -0.014249 0.260131 -0.012522 0.064114 0.494265 -0.033964
频 0.163766 0.124919 -0.04146 0.187118 0.252359 0.055652 0.576818 0.124617 -0.524457 -0.20293 -0.257607 0.500665 0.061669 -0.224155 0.238366 -0.070377 0.196845 0.146932 0.121359 0.045955 -0.672772 0.008823 0.297617 0.289425 -0.362869 0.035938 -0.05411 -0.314916 0.442769 0.34662 -0.151183 0.032998 0.130277 0.094589 0.089391 0.203614 -0.107251 -0.509176 0.289124 -0.70185 0.063423 -0.022655 0.018649 -0.013121 -0.343124 0.945094 -0.101946 0.428972 -0.005902 0.331038 -0.160834 -0.32987 -0.220434 0.759547 0.51724 -0.053185 0.325138 0.320946 -0.044068 0.561052 -0.082971 -0.05858 -0.067345 0.544403
餐 -0.208931 -0.237667 -0.317293 0.066365 -0.138346 0.385247 0.278865 -0.421494 -0.371292 -0.005244 -0.205256 0.048197 -1.1196 -0.452794 -0.48631 -0.005604 -0.72912 0.077159 -0.408221 0.090532 0.538723 0.325333 -0.256076 -0.21224 -0.778128 0.911425 -0.169042 0.841962 -0.057698 -0.42625 -0.229133 0.107291 0.249525 0.061096 0.06265 -0.073716 -0.003506 0.349818 0.076523 -0.355309 0.001444 0.294794 0.008318 0.067055 0.403599 0.00414 0.089056 -0.359629 -0.074346 -0.011579 0.03956 -0.035447 1.0008 0.078049 0.239535 -0.601673 0.438829 0.153239 -0.093878 0.483104 -0.710255 -0.087665 0.056613 -0.350386
蚂 0.637554 0.542987 0.234012 -0.213319 -0.57395 0.435395 -0.139334 -0.370114 -0.886783 -0.366273 -0.371773 -0.993273 0.21038 -0.633809 -0.238663 -0.790965 -0.13865 -0.358188 -0.666278 -0.232274 1.02331 -0.108524 -0.399249 0.332971 -0.134252 -0.389678 0.310724 0.550474 0.256596 0.443594 -0.333213 -0.06446 -0.516299 -0.161355 -0.453842 0.741568 -0.046242 0.792373 0.162046 -0.072235 0.095134 -0.05042 -0.19388 -0.444007 -0.679992 0.320673 0.105991 -0.200829 1.19454 0.382336 -0.827278 -0.498985 0.391047 -0.0647 -0.11491 0.293151 0.418966 -0.673328 -0.218736 -0.501923 -0.000576 0.99074 -0.22572 0.304471
底 -0.238433 -0.003549 -0.1628 0.56122 -0.27474 -0.807888 0.297112 0.117506 -0.177571 -0.446394 -0.167513 -0.0638 -0.059019 0.408025 0.23404 0.199394 0.08961 -0.442847 0.071467 -0.091414 0.165124 0.215311 -0.255631 -0.329003 0.788868 -0.079173 -0.113996 0.095831 0.28366 -0.001858 -0.362031 -0.346547 0.168385 -0.104141 -0.33981 0.050655 0.501303 -0.386879 0.258025 0.038454 -0.620006 0.140687 0.337126 -0.18696 0.204959 -0.085094 -0.54298 0.313475 0.194508 -0.0528 -0.137175 -0.297427 0.096684 -0.252292 -0.285256 0.423844 -0.04091 -0.175703 -0.005911 -0.214576 -0.241043 -0.143625 0.353706 0.5378
缔 -1.06528 0.404851 0.16232 -0.277842 0.235552 0.011565 -0.309812 0.026179 0.534926 -0.100666 -0.697565 -0.210774 -0.060843 -0.313854 -0.184345 -0.050255 -0.353837 -0.967439 -0.33937 -0.034779 0.423031 -0.810408 -0.077524 -0.407542 0.334686 -0.793654 0.018738 0.464549 0.112729 -0.027258 1.08391 -0.350049 0.590579 0.531878 -0.00772 -0.840529 0.343941 -0.46968 -0.123628 -0.511167 -0.264129 -0.370993 -0.426143 -0.212404 0.277971 0.254954 0.11634 -0.025899 0.000573 -0.292915 0.713197 0.760606 0.582211 -0.121555 0.573544 -1.07238 0.388771 -0.161713 -0.538295 -0.286179 -0.213547 0.290426 -0.215959 -0.272384
怖 0.768233 0.934687 -0.055658 -0.839819 1.36616 0.129617 0.26743 0.99724 -0.249232 0.018254 -1.81128 -0.32358 0.751905 0.16753 -0.880387 -0.565221 0.408834 0.039871 -0.316595 0.162992 0.672614 -0.835891 -1.11274 0.286538 -0.651811 0.474296 -0.433506 0.206283 0.927433 -0.355286 -0.429829 -0.222223 -0.059258 -0.114041 -0.123895 -0.668165 -0.743936 -0.337539 0.411111 -0.588683 -0.06088 0.43676 0.537063 0.52788 0.776395 0.81696 -0.089961 0.317046 0.100379 -0.402631 1.2524 -0.320369 -0.82478 -0.632225 -0.883186 1.29388 -0.15302 0.025735 0.552973 0.969461 -0.425398 -1.24164 0.219158 -0.877793
蒙 0.415895 0.237499 -0.19866 -0.133702 -0.133196 -0.204542 -0.044931 -0.224775 0.086172 -0.262443 0.204198 -0.042936 -0.503912 -0.048886 -0.355135 -0.189587 0.053224 -0.577531 0.296274 -0.614257 -0.477848 -0.416095 0.488109 0.345033 -0.397121 -0.305346 -0.372899 0.105052 0.073539 -0.153138 0.088387 -0.028491 -0.160115 -0.218223 -0.184917 -0.541775 0.045586 0.247461 -0.268082 -0.271918 -0.099509 0.116139 0.109209 -0.045411 -0.270849 -0.248327 0.095163 0.157363 -0.103762 0.222888 -0.005056 -0.8206 -0.314663 -0.510913 -0.530494 0.338934 -0.044926 -0.349729 -0.174328 0.027176 -1.00234 0.073145 -0.437906 -0.086454
裤 0.196813 0.331431 -0.792204 0.344663 -0.141728 0.493155 0.63189 0.032133 -1.03102 0.397451 0.351894 0.288142 0.030577 0.61156 0.29202 0.845842 -0.214951 0.084558 0.000741 -0.033757 0.904748 -0.253511 0.235303 0.087084 0.267966 -0.623392 -0.658434 0.258391 0.581474 -0.161802 -0.149399 -0.657603 0.190785 0.220926 -1.11671 0.406001 0.435716 0.054979 0.53761 0.173537 1.12624 0.075239 0.231126 1.01114 0.705618 0.960068 0.308919 -0.174841 -0.411921 0.222809 -0.835706 -0.209136 0.166059 0.130206 0.10325 0.1865 -0.417963 0.059515 0.312466 -0.235212 -0.615167 0.302689 -0.242838 -0.030132
售 0.344639 -0.396462 -0.254214 -0.006505 0.358105 0.021471 -0.008763 -0.29831 -0.078343 0.095654 -0.319801 0.809364 -0.037398 -0.251882 -0.105069 -0.335612 -0.205096 0.025345 -0.286836 0.142929 0.033693 -0.082505 -0.677957 -0.594912 -0.471896 -0.019542 0.513088 -0.105847 -0.33395 -0.544612 -0.588835 0.114469 0.139642 0.247797 0.355118 -0.154449 0.822371 -0.229886 -0.184717 0.164287 0.790801 -0.496725 0.701582 -0.273005 0.016244 0.130992 0.220669 0.246428 0.254222 -0.654591 0.05915 0.363427 0.217206 -0.320527 -0.002784 0.137494 0.215335 -0.122629 -0.14404 0.181144 -0.461209 0.026966 0.224671 -0.210573
辟 -0.439315 -0.066451 -0.085817 -0.217492 -0.705561 -0.199832 0.63229 0.403141 -0.12639 -0.879155 -0.676422 0.469193 -0.124742 -0.586361 0.125224 -0.140257 -0.506822 -0.917265 -0.223835 -0.364917 0.489655 0.518033 -0.153535 0.253792 -0.941595 0.115246 0.11731 -0.360886 -0.544751 -0.207808 -0.029373 -0.042526 -0.551775 0.443403 -0.142986 -0.10516 -0.030918 0.059855 -0.062583 -0.283236 -0.118322 -0.097453 -0.626671 -0.246023 -0.717333 0.076256 -0.105933 -0.256867 0.199614 -0.608698 0.325822 -1.02563 -0.042244 -0.466191 0.475638 -0.178755 -1.2793 -0.391243 0.264033 0.572349 -0.256445 0.332148 -0.279748 -0.198864
厄 -0.258514 0.396869 -0.08714 -0.603964 -0.11136 -0.090952 -0.204694 -0.386122 0.216194 -0.35012 0.217645 -0.510607 -0.553547 -0.019185 -0.775809 0.021719 0.403252 0.517579 0.104813 -0.449221 -0.105033 -0.116689 0.079387 0.690583 -0.410923 -0.080812 0.484963 0.057421 0.384522 -0.06645 -0.030306 0.310935 -0.319995 -0.073955 -0.866047 -0.527468 -0.200051 -0.214038 -0.441749 0.482407 -0.166335 -0.107429 0.370123 0.036731 0.12066 -0.072875 0.368425 0.466937 -0.268169 0.114228 0.342633 -0.121222 -0.367237 -0.267317 -0.853252 0.234033 0.016168 0.443373 0.173116 0.268721 -0.56533 -0.150583 -0.34777 -0.10451
岩 -0.073413 -0.042483 0.465651 -0.070215 -0.029112 -0.54053 -0.453694 -0.330915 0.245668 -0.227152 0.156518 -0.530756 0.213865 0.407638 0.408697 -0.01508 0.221992 0.146533 -0.12896 -0.213359 0.44639 -0.03438 -0.016899 -0.398367 0.340405 -0.316102 -0.08705 -0.511097 -0.056273 0.25853 -0.44232 -0.107435 0.406587 0.155024 -0.167393 0.208652 -0.230858 0.398346 0.234997 -0.009122 -0.720517 -0.437436 -0.051456 0.395068 -0.182609 -0.022793 -0.306168 0.586883 -0.277856 0.210907 -0.619257 -0.056588 -0.033262 -0.076018 -0.291756 0.126829 0.362343 -0.266358 0.4919 0.081556 0.677982 0.2046 -0.074069 0.161394
芭 -0.118844 0.206358 -0.028588 -0.142045 -0.72392 0.700125 -1.0859 -0.312294 0.321198 0.66757 0.267644 -0.314089 0.313982 -0.019546 -0.068933 0.586675 -0.377231 0.142871 -0.201445 0.161302 -0.513508 0.3853 0.505584 0.402457 0.069313 0.255208 0.156754 0.19693 0.118755 -0.4834 0.27313 -0.911754 0.640152 0.265314 -0.708786 0.327031 0.048688 0.219576 -0.448718 -1.35904 -0.394581 0.19936 0.075089 0.234991 0.591615 -0.799939 0.283445 0.954508 -0.695528 -0.885133 0.271584 -0.376859 0.593891 0.302926 -0.266005 -0.339701 0.315349 -0.02715 -0.82169 0.075115 -0.574959 -0.220393 0.599473 -0.025755
惜 -0.209963 0.260581 -0.385911 0.441209 0.644319 -0.017491 -0.121935 0.27332 -0.171016 0.857448 0.020016 -0.003085 0.118489 0.256722 -0.462835 -0.243845 -0.080007 -0.353546 -0.274588 -0.259712 -0.333544 0.199124 -0.439625 -0.337571 0.348143 -0.003274 0.024611 -0.141237 0.057553 0.334259 -0.235684 -0.28926 0.521931 -0.246824 -0.917497 -0.078693 0.098407 -0.118316 0.167361 0.190705 0.097164 -0.026414 -0.308933 -0.604729 0.31649 -0.142447 0.900473 -0.29739 0.163827 -0.60726 0.16784 0.08123 -0.124534 -0.026699 0.056568 0.002198 0.021907 0.53355 0.571876 0.103285 0.167684 -0.316045 0.020381 0.128047
袱 -0.110002 1.0721 0.14651 -0.083723 0.135758 0.434137 0.454686 -0.373465 0.041453 -0.02123 -0.632728 0.021962 -0.127173 0.036711 0.328388 -1.36407 -0.882487 -0.350668 0.154553 -0.29689 0.068735 -0.11253 -1.58222 -1.409 -1.04582 -0.631022 -0.16466 0.362186 0.026282 0.147798 0.327859 0.073078 0.424587 0.044867 -1.08217 0.625537 0.080469 0.801385 1.33571 -0.619503 0.200602 0.327873 0.762045 0.354892 -0.047408 -0.697157 0.704086 0.38313 -0.274599 -0.738789 -0.738604 0.657697 0.214454 -0.047258 0.063539 -0.335835 -0.894328 -0.301942 -1.19262 -0.940606 0.641862 0.366745 -0.990387 -0.827156
椰 -0.42068 0.081706 0.316807 -0.279925 0.597522 0.932084 -1.08347 -0.138255 -0.382103 -0.419119 0.436437 -0.46332 -0.170173 0.127287 0.484833 0.892015 1.1994 -0.135972 0.487457 0.142924 0.784695 0.415108 -0.063644 -0.523409 -0.080262 0.427567 0.81827 -0.106908 -0.175401 -0.027512 -0.234761 -0.194258 0.55578 0.349576 -1.01652 0.853001 0.320762 0.665163 0.336828 -0.298028 0.208999 0.416263 -0.625491 0.133341 -0.327841 0.083099 -0.341512 0.1238 -0.065063 0.303241 -0.538223 0.619392 -0.370195 0.295554 0.083218 0.326225 0.288648 -0.072748 -0.089993 -0.017298 0.175475 -0.519534 -0.101951 0.28583
足 -0.291201 0.247823 -0.035082 0.37288 0.07463 0.350418 -0.167602 -0.092148 0.1475 0.132925 -0.054126 -0.312525 0.344106 -0.228317 -0.435244 0.105652 0.134088 -0.109448 0.188198 0.436325 -0.315656 -0.321387 -0.082586 0.130613 0.216765 -0.187376 -0.41996 0.42404 -0.369421 -0.187042 -0.029186 0.030334 -0.195065 -0.051213 0.255405 -0.017693 -0.271365 -0.034873 -0.494383 0.532355 0.068034 -0.318323 -0.245905 0.197757 0.974154 0.076881 0.387984 -0.124965 -0.677167 -0.399601 -0.109594 0.287167 0.196292 -0.158701 -0.023884 -0.144513 0.063955 0.176972 -0.133141 -0.768265 -0.038414 -0.38886 -0.305293 0.699228
伴 0.142192 -0.081704 -0.320853 0.118903 0.442619 0.069184 -0.233686 0.070758 0.253645 -0.262623 -0.006577 -0.64007 -0.053713 0.155622 -0.666573 0.083064 -0.405126 0.554572 0.335427 0.332688 0.074843 0.986784 -0.155466 0.044727 0.476861 -0.406021 -0.422656 0.017177 0.830065 -0.138826 0.239779 -0.355818 0.1682 0.34849 -0.138827 -0.112983 -0.1681 0.279951 0.382149 0.24156 -0.433941 0.181864 -0.030044 0.106609 -0.279582 0.372104 0.069564 -0.387844 -0.475397 -0.295011 -0.016455 0.388055 0.234574 0.362077 0.294073 -0.614096 0.493989 0.052682 -0.023143 0.138098 -0.238674 0.152042 0.747869 -0.278228
玷 0.211053 -0.012646 0.193272 -1.03824 -0.624579 0.134571 0.950251 -0.774749 -0.902705 -0.624997 0.222566 -1.04506 1.45209 0.087446 0.232934 -0.881789 -0.501839 -0.211915 -0.459511 -0.545093 0.543484 -0.912439 0.532882 -0.311551 -0.488125 0.04238 0.862897 0.183866 -0.240918 0.098616 0.612146 0.058854 0.307096 -0.100687 -0.779813 -0.188343 1.02215 -0.419733 -0.57797 -0.526228 -1.23498 0.811854 0.067538 -1.3633 -0.365351 0.056661 -0.551099 0.478536 -0.007309 -1.14517 0.150847 0.190019 0.051631 -0.896613 0.262369 -0.746248 -0.361134 0.238972 -0.242886 -0.078314 0.586819 -0.761153 -0.20686 0.319981
妈 0.414094 0.645412 -0.450948 0.495653 -0.278417 0.283397 -0.29322 -0.421211 0.283636 0.338374 0.393515 -0.10038 0.199557 -0.103471 -0.316271 -0.114563 -0.048039 0.166767 0.460445 0.420369 0.125655 0.517045 -0.170655 -0.212839 0.532202 0.169316 -0.421575 -0.134043 0.109521 0.162897 0.496082 -0.027699 -0.113603 0.053022 -0.381308 0.319036 0.548552 1.10577 -0.077752 -0.079604 0.052887 0.376866 0.003786 -0.184404 -0.747125 -0.51637 -0.06004 -0.682733 0.039829 0.251264 -0.026807 -0.253877 0.391162 0.156664 0.433479 0.481933 0.19476 0.172183 -0.024659 -0.36408 -0.061145 -0.23933 0.376877 -0.197628
甸 -0.350893 0.443175 0.180118 -0.252809 0.810543 0.009986 0.130662 -0.272259 0.654116 -0.066915 -0.085786 -0.096922 -0.06654 0.36237 0.083077 -0.229825 0.13611 0.479053 0.502832 -0.261213 0.434183 -0.213194 0.657997 -0.656098 0.404947 -0.423174 0.006323 0.314549 -0.665333 0.185183 0.691825 0.346497 0.442647 -0.489312 -0.6639 0.284346 -0.033464 -0.125579 0.103562 0.630669 0.058174 -0.840622 -0.131357 0.042913 -0.083953 -0.211539 0.058859 0.053664 -0.33448 -0.295821 -0.40769 0.245298 0.454028 0.292362 -0.7922 -0.315596 -0.957996 0.698675 -0.419289 -0.051778 0.397933 -0.816551 -0.795733 -0.15752
离 -0.214052 0.329223 0.162692 0.325308 -0.041671 -0.232874 -0.254775 -0.036509 0.024696 -0.183171 0.050934 0.366817 -0.405175 0.096535 -0.18082 0.16309 0.14077 -0.158566 0.329824 0.006559 -0.16289 -0.106354 0.140318 -0.003511 0.289718 -0.407203 -0.192533 0.378682 0.44612 -0.066644 -0.017676 -0.076526 -0.248859 -0.03887 0.447446 -0.394463 -0.139095 -0.229355 -0.258811 -0.180605 -0.149746 0.331604 -0.011394 -0.457611 -0.383517 0.261212 -0.076415 0.119203 -0.494714 -0.501771 -0.412374 0.204685 0.204907 -0.086361 -0.059747 0.304978 0.177368 -0.114416 0.667471 0.056531 -0.025531 0.072338 0.406802 0.05264
鬼 -0.020367 -0.186958 -0.139573 0.4936 0.41174 0.361684 -0.153872 0.071064 0.588363 0.581801 -0.299299 -0.367197 0.064503 -0.448667 0.059898 -0.334237 0.270339 -0.432862 -0.222387 -0.357819 0.385269 0.08422 -0.189567 -0.068274 -0.241595 0.117997 -0.450273 0.094897 0.460872 -0.182068 0.089198 0.363484 0.182446 -0.709976 -0.550306 -0.302217 -0.205884 0.734014 -0.050181 0.046935 -0.51458 0.150801 -0.10675 0.018261 -0.687887 0.727401 0.214381 0.270202 0.219947 0.019612 0.26177 -0.247209 0.370216 -0.273113 -0.105726 0.14605 0.356364 -0.23095 0.243614 -0.089578 -0.073226 -0.251088 -0.031165 -0.149029
尾 0.299249 0.084199 -0.475843 0.15124 0.038837 -0.131125 0.219008 0.599376 -0.351621 0.458729 0.31675 -0.025795 0.366019 0.021444 0.41544 0.153365 0.199747 -0.197905 -0.710809 0.298096 0.998107 0.333829 0.104875 -0.086136 0.184469 -0.34433 -0.319064 0.236575 0.031182 0.035373 -0.375087 0.383465 0.264055 -0.103014 -0.323077 -0.087891 -0.00118 0.066781 0.072939 0.190576 0.255467 -0.399234 0.573446 0.624958 -0.100168 0.283572 -0.110366 0.461724 -0.214491 0.05294 -0.441394 -0.136804 0.218448 0.283013 -0.06469 -0.001491 -0.402051 -0.066455 0.157021 -0.204157 -0.23867 -0.77875 0.390432 -0.490998
胁 -0.091926 0.408645 0.286268 -0.11837 0.343533 0.817548 -0.207874 0.008538 -0.203711 -0.29503 -0.695304 -0.386861 0.038538 0.037182 -0.574815 -0.51695 0.106257 0.093624 0.859265 -0.332749 -0.034038 0.311908 -0.503345 -0.23713 0.520857 0.592719 0.106846 0.355137 -0.254819 -0.173229 0.194975 0.908868 0.287538 0.083969 0.382455 -0.167652 -0.501495 0.370816 0.047893 -0.170513 0.468193 0.085205 0.346808 0.387894 -0.321084 0.265562 0.104787 0.142292 -0.758955 -0.255286 0.126103 0.438799 -0.052903 0.092379 0.054725 0.397886 -0.314385 0.349091 -0.111919 -0.277848 0.084027 0.00463 -0.316935 0.19715
框 0.159467 -0.137083 0.071207 -0.309576 -0.129856 -0.012575 0.022702 -0.092705 0.281578 0.051598 0.765392 -0.121013 -0.20344 0.159628 0.112429 0.787765 -0.587083 0.512783 -0.481715 -0.058215 0.66192 0.040684 0.87026 0.294466 0.839518 0.096493 0.233812 0.279581 0.095186 -0.777231 0.264342 -0.493858 -0.67237 0.565221 0.089572 0.023565 1.09075 -0.672178 -0.447324 -0.37723 -0.3523 -0.543122 -0.127005 0.93163 0.015832 0.553329 0.101852 -0.032834 0.089588 -0.151328 0.2666 -0.092456 0.231521 -0.12485 0.359933 -0.141824 0.029105 -0.505553 -0.048093 0.029687 0.348285 0.838673 -0.385256 0.621122
泉 0.018444 -0.041967 0.092283 0.032591 -0.190655 -0.376847 -0.125207 -0.109021 0.568598 0.465203 0.007296 -0.465833 0.045914 0.268356 -0.069053 0.204735 0.206737 0.16477 -0.28312 0.085022 -0.049891 -0.095236 0.170858 -0.449011 -0.135771 0.425125 -0.304483 -0.28766 -0.576499 -0.101936 -0.274188 0.235782 -0.036879 -0.319143 -0.44286 -0.37166 -0.442597 0.032337 0.106371 0.333864 -0.030023 -0.009826 -0.292073 -0.001744 -0.438816 0.142199 0.100593 0.434878 0.0739 0.358828 -0.401769 -0.518986 -0.351101 0.446714 0.080995 0.141848 0.306594 -0.020472 0.342584 -0.152345 -0.061477 -0.480014 -0.089177 -0.139773
凋 -0.126844 -0.195072 0.873167 0.599551 -0.148916 0.297411 -0.465678 -0.155348 0.208339 0.057992 -0.144031 -0.600508 0.518021 0.001381 0.654603 -0.489549 0.221667 -0.246038 -0.371184 -0.19108 0.761984 -0.449743 -0.073037 0.019372 -0.615631 -0.388383 -0.561356 0.111 0.316339 0.813946 0.104514 -0.027997 0.000606 0.539864 -0.065881 0.206604 -0.396118 0.542797 -0.13084 -0.455827 -0.614253 -0.268026 -0.288123 -0.521444 0.584856 0.518079 0.000822 0.242293 0.18882 0.011863 0.10527 -0.247259 0.040888 -0.175464 -0.348184 -0.058499 0.491953 0.10447 0.337776 0.469132 0.315199 0.865592 -0.261082 0.143883
呎 0.259841 -0.29324 0.995059 -0.352119 -0.383255 0.350896 -1.38986 -0.228128 -0.81438 0.252297 1.08058 0.391519 -1.08786 -1.44264 -0.437492 -0.461881 -0.669408 -0.301898 -0.694948 -0.091285 0.542792 0.227863 -0.444723 -0.523493 0.516744 -0.464631 -0.373664 -0.354165 -0.089443 -0.040884 -0.629893 -0.444741 0.386827 0.352091 0.382704 -0.604249 -0.410984 0.1326 -0.652985 0.071911 0.791941 -1.13356 -0.223195 0.014394 -0.343835 -1.381 0.326769 0.837732 -0.273007 -0.867211 0.172583 -0.491621 0.363794 1.66925 0.401118 0.520978 -1.1513 0.481779 0.085592 -0.86139 0.849067 0.549493 0.071224 -0.540523
壑 0.127284 0.06341 -0.598155 -0.14943 -0.075668 -0.238969 -0.317059 1.3229 0.906791 0.140645 0.187823 0.123339 0.263455 -0.528428 0.562734 0.410914 -0.000573 0.575839 -0.633198 -1.01602 1.11276 0.633653 -0.420722 0.255832 -0.013286 0.39763 1.42907 -0.639378 -0.158028 -1.10054 -0.222326 0.558269 0.304544 0.143173 -1.06669 -0.141219 -0.910666 -0.883857 0.270489 0.492732 -0.303909 0.321508 -0.028679 0.213432 -0.775386 -0.127448 0.277988 0.884296 0.433566 -1.37149 -0.184498 -0.378018 -0.222616 1.44036 -0.506924 0.021646 -0.830628 0.211113 0.068956 -0.252461 1.24887 0.584168 0.032491 -0.600181
祐 0.066566 0.109178 0.686218 -0.91311 -0.389903 0.13203 -0.135809 0.191382 -0.067462 0.714282 -0.18033 -0.134281 0.162561 0.103899 0.73013 -0.318993 0.269651 -0.330351 0.544703 -0.019971 -0.145976 -0.018552 -0.035212 0.270935 0.091945 0.380653 -0.356729 0.268819 0.334241 -0.314195 -0.130262 -0.208529 0.276389 -0.206895 -0.8489 -0.559778 0.292381 -0.076535 0.029421 -0.361863 0.724049 0.413488 -0.995343 -0.345123 0.082804 -0.451086 -0.528487 0.304132 0.061227 0.148278 0.053536 -0.124218 0.02764 -0.127594 -0.25377 -0.17012 -0.303026 0.091865 -0.320738 -0.449263 0.72645 -0.567961 0.156643 -0.64347
贤 -0.119668 -0.187845 -0.097798 -0.726203 0.017188 0.279421 0.243331 0.204477 0.220311 0.241804 -0.19963 -0.445536 -0.003294 0.159112 -0.064136 -0.172381 -0.166555 0.149595 -0.001787 -0.268106 -0.016462 -0.215853 0.128833 0.005074 -0.179712 0.805956 -0.034395 -0.293047 -0.103544 0.204058 -0.445125 -0.104554 -0.193038 0.277317 -0.275064 -0.524274 -0.233355 0.550826 -0.083185 0.251831 -0.066889 0.447793 -0.450954 -0.383365 -0.36384 -0.372675 0.038743 -0.250195 -0.096374 0.531728 0.356034 -0.039155 -0.129466 -0.110449 -0.20024 -0.205374 -0.206197 0.174075 -0.051616 0.189395 0.264243 -0.471486 -0.105657 -0.302555
绕 -0.11142 0.29604 0.537585 0.034109 0.098786 -0.308967 0.244866 0.491421 0.533608 -0.747823 0.015552 0.208905 -0.156289 0.38142 0.106579 0.080399 0.320166 -0.380372 -0.05135 -0.097753 -0.110375 -0.033492 -0.570245 0.24255 -0.131592 0.197514 -0.215601 0.024442 -0.401125 -0.169351 0.356251 -0.045574 -0.335367 -0.043134 -0.153514 0.82771 -0.26848 -0.077403 0.433537 -0.07164 0.026251 0.118007 -0.089028 0.303813 -0.025483 0.287122 -0.205762 -0.089046 -0.53379 -0.261332 -0.452696 0.097136 -0.068919 -0.092323 0.209365 -0.147093 -0.307026 -0.187133 0.469134 -0.441561 0.094415 -0.105505 0.496212 0.119629
V 0.056936 -0.316952 0.184114 0.141992 0.382652 0.186638 0.178565 -0.686775 0.133745 -0.085751 0.92482 -0.129915 0.703015 -0.412629 0.17649 -0.070329 -0.148904 0.013834 -0.438734 -0.236013 -1.04594 0.57405 0.310577 -0.12696 -0.350292 -0.06237 -0.063652 -0.507987 0.102115 0.258684 0.158254 -0.380798 -0.346125 0.008375 0.020678 -0.264029 -0.430362 0.270545 -0.677642 -0.239056 0.272494 -0.589697 0.388108 0.817243 -0.115938 0.730725 -0.568739 0.041784 0.164089 -0.282517 0.198479 0.587004 0.457607 -0.357068 0.170323 0.558002 0.164199 0.250256 -0.508314 0.34786 0.0184 0.155062 0.706987 -0.08623
虚 0.14824 -0.379552 -0.328094 -0.043519 0.008344 -0.172879 0.331741 -0.381959 -0.522799 -0.372417 0.068935 -0.277615 0.582167 0.085594 0.023834 0.024495 -0.993207 -0.266134 -0.58817 0.052046 0.78982 -0.568732 0.630277 0.103908 -0.570063 -0.080193 0.30588 -0.390063 -0.210868 1.08013 0.093341 0.047707 0.117809 -0.246213 -0.092923 -0.401831 -0.022388 -0.1965 -0.238804 -0.874943 -0.270902 0.411813 -0.233654 0.174371 0.074318 -0.296841 0.038726 -0.416238 0.342598 -0.668712 0.066769 0.47683 -0.027168 -0.368005 0.559776 0.437126 0.233707 0.077809 0.324161 0.235651 -0.17322 0.37418 -0.511145 0.299245
迟 -0.267045 -0.019292 -0.421269 -0.109472 -0.153957 -0.200521 -0.138347 0.567747 -0.452395 0.035036 0.193111 0.285475 0.06097 -0.172396 -0.164344 -1.05303 -0.113951 0.697821 0.401014 0.341112 0.490419 -0.636303 0.111863 0.322147 -0.002942 0.288842 -0.050878 -0.087882 -0.848148 0.038826 0.350301 0.222823 -0.33025 -0.45285 -0.128084 -0.349195 -0.214508 -0.427792 -0.597956 -0.056958 0.312886 0.255396 0.11311 -0.449019 -0.522831 0.621171 -0.078986 -0.486559 -0.219119 -0.985143 0.232836 0.079031 0.150121 -0.099525 -0.075443 0.196182 -0.456891 -0.19645 -0.238004 0.566844 -0.178828 -0.284383 -0.156031 0.610495
汞 0.444491 0.328365 -0.545454 0.376716 0.993944 -0.729959 -0.040216 -0.52007 0.668254 -0.579414 0.2893 -0.724314 0.41598 -0.085676 0.255039 -0.364159 1.25591 -0.904627 0.11743 -0.220314 -0.070585 -0.393008 -0.431481 -0.38679 0.047273 0.385567 1.37912 -0.740008 -0.08645 0.118724 -0.196554 -1.13467 0.022522 1.2065 -0.506669 -0.615236 0.572122 -0.607694 0.163709 -1.22366 -0.890923 0.5258 0.31982 -0.326612 0.332803 1.60256 0.242381 0.517061 -0.374844 0.970357 -0.284424 -0.892364 0.9836 -0.367648 0.04975 -0.18731 -0.29137 0.274296 -0.36389 0.529457 -0.081071 -1.08582 -0.149786 -0.571287
郡 -0.236855 0.066447 0.162191 -0.699597 -0.011791 0.0017 -0.497487 -0.079246 -0.178836 -0.16587 0.410306 -0.418069 -0.451843 -0.277507 0.590046 0.369997 -0.153418 0.450233 -0.194753 -0.175085 -0.547905 -0.602956 0.125287 0.171921 0.054078 -0.010295 -0.040637 0.372124 -0.020777 -0.199453 -0.210884 -0.155967 0.456664 -0.250062 -0.168493 -0.301728 -0.097146 -0.16907 0.168861 -0.111514 0.592562 -0.098462 -0.506817 0.372662 -0.38578 -0.1209 -0.262138 0.024305 0.511808 0.09998 -0.01349 -0.134755 -0.056307 -0.230756 -0.41152 -0.063324 -0.25878 0.018011 0.498757 -0.479692 0.230599 -0.257586 -0.403115 -0.078162
